<?xml version="1.0"?>
<opencv_storage>
<opencv_ml_ann_mlp>
  <format>3</format>
  <layer_sizes>
    128 128 128 128 13</layer_sizes>
  <activation_function>SIGMOID_SYM</activation_function>
  <f_param1>1.</f_param1>
  <f_param2>1.</f_param2>
  <min_val>-9.4999999999999996e-01</min_val>
  <max_val>9.4999999999999996e-01</max_val>
  <min_val1>-9.7999999999999998e-01</min_val1>
  <max_val1>9.7999999999999998e-01</max_val1>
  <training_params>
    <train_method>BACKPROP</train_method>
    <dw_scale>1.0000000000000000e-03</dw_scale>
    <moment_scale>1.0000000000000001e-01</moment_scale>
    <term_criteria>
      <epsilon>1.0000000000000000e-04</epsilon>
      <iterations>10000</iterations></term_criteria></training_params>
  <input_scale>
    2.3891317898443700e-02 -2.0620045140041410e+00
    1.7139258354083260e-02 -2.1167511429088335e+00
    1.7158197071161462e-02 -2.0372851285509221e+00
    1.4425574798364508e-02 -1.6541473723404618e+00
    1.6097010230836088e-02 -1.8663368954253849e+00
    1.8089178624868401e-02 -2.1271482587566406e+00
    1.6985127233040406e-02 -1.6999237954126314e+00
    2.8008964283990315e-02 -1.7384517770358541e+00
    2.2289514888689226e-02 -2.1207273211939945e+00
    1.4923432331676693e-02 -2.2569510284627907e+00
    1.5517322864111435e-02 -2.2417518249715696e+00
    1.3313324948491271e-02 -1.8268749314703547e+00
    1.4409872587736162e-02 -2.0880792141019713e+00
    1.7005189382570653e-02 -2.6271447886282497e+00
    1.5838490617474901e-02 -1.9763268592485181e+00
    2.4997160598450304e-02 -1.6618496937551277e+00
    2.3418382291082722e-02 -2.2502903684903623e+00
    1.4714749677737522e-02 -2.3252700202289378e+00
    1.9148650890313080e-02 -2.4391551504080802e+00
    1.7208592372629616e-02 -1.7007119468082370e+00
    1.6277691948544511e-02 -1.8688292913108964e+00
    1.6314327529590673e-02 -2.3342288839684033e+00
    1.5182858870863059e-02 -1.8975303434360484e+00
    2.5451412254228183e-02 -1.6595495470322355e+00
    2.3956771887345071e-02 -2.2808321099637885e+00
    1.4734001526142052e-02 -2.3540627576790434e+00
    1.9952144655233282e-02 -2.2845819542385346e+00
    1.5683093352959868e-02 -1.2640090685767100e+00
    1.4104969168363204e-02 -1.3387351736982018e+00
    1.6182002554941902e-02 -2.0016888206577672e+00
    1.3391019055805350e-02 -1.6118460613956227e+00
    2.3921701647521710e-02 -1.5964975653376796e+00
    2.5096223110129341e-02 -2.3075398006153693e+00
    1.4698524455651481e-02 -2.3742639618786576e+00
    2.0142750116848563e-02 -2.3072745537691688e+00
    1.4699890556838603e-02 -1.2518879102528582e+00
    1.2930618695891653e-02 -1.2499332829234837e+00
    1.7363516776716756e-02 -1.9011982346395511e+00
    1.3382194298229256e-02 -1.4570327271999732e+00
    2.3639682818331714e-02 -1.5292692658892773e+00
    2.6482723666420342e-02 -2.3416024265848865e+00
    1.4763267719777314e-02 -2.4000076514052755e+00
    2.1257922159530995e-02 -2.5114763329182517e+00
    1.4952153537294110e-02 -1.4085388698393737e+00
    1.3167724111990686e-02 -1.3825097415735452e+00
    1.7957843315273385e-02 -1.9382314701943377e+00
    1.3094924923471123e-02 -1.3538742148185074e+00
    2.4044077448811041e-02 -1.4974281526235687e+00
    2.7834542031411846e-02 -2.3530465385908452e+00
    1.4777245766775990e-02 -2.4251733725705056e+00
    1.9570713854094965e-02 -2.5496726009114918e+00
    1.5777660084312646e-02 -1.8246742520891541e+00
    1.3959239331150673e-02 -1.7892308702084418e+00
    1.8942480430956810e-02 -2.4426765649882598e+00
    1.3878585270533147e-02 -1.6036171488359876e+00
    2.4108927821871334e-02 -1.5420441141450780e+00
    2.9205536928888630e-02 -2.3471816055818664e+00
    1.4730086863922296e-02 -2.4525368011709636e+00
    1.6581265755179715e-02 -2.3949980256781580e+00
    1.4002927404960513e-02 -1.8429791331799490e+00
    1.3000347113901974e-02 -1.8916505077428440e+00
    1.5839618644927042e-02 -2.3838382374174505e+00
    1.3245091133921525e-02 -1.7356163651257939e+00
    2.2383800526481635e-02 -1.5042947052281495e+00
    3.0298738331030039e-02 -2.3228877342311076e+00
    1.4820669360488885e-02 -2.4911493102301132e+00
    1.7070291872161292e-02 -2.4346700747576260e+00
    1.5085382412368309e-02 -1.6210984023137329e+00
    1.4404956779575092e-02 -1.6943996623014965e+00
    1.6673413359135480e-02 -2.3189639813937304e+00
    1.3101449371198910e-02 -1.7384817072542724e+00
    2.1277649493784977e-02 -1.4937891989998304e+00
    3.1322295390776494e-02 -2.3493167187485025e+00
    1.5307582287575151e-02 -2.5464045384748282e+00
    1.8433258865365773e-02 -2.4774583503649525e+00
    1.8497201958986725e-02 -1.3851273971564921e+00
    1.6502059426609882e-02 -1.2883538611110332e+00
    1.6654543352336893e-02 -1.8564947586721876e+00
    1.2926593880085699e-02 -1.6514419729172254e+00
    2.0353185658698512e-02 -1.5227940383905014e+00
    3.2447726272735476e-02 -2.4335295508762798e+00
    1.6089932987036953e-02 -2.6615719609725961e+00
    1.8953334645098470e-02 -2.5453453659075933e+00
    1.9831332399066256e-02 -1.3312620890782416e+00
    1.6973511183493582e-02 -1.1870751459852842e+00
    1.6963282239812853e-02 -1.7947935530440760e+00
    1.3386905318557858e-02 -1.8086944799708766e+00
    1.9601305099303024e-02 -1.6141825528546034e+00
    3.3551124991456668e-02 -2.5352778557005800e+00
    1.8216976220477007e-02 -3.0645718442776912e+00
    2.0675032582621492e-02 -2.8462204085509790e+00
    1.9143692580826800e-02 -1.3374078155312998e+00
    1.6547741302190128e-02 -1.1945432575097925e+00
    1.7511514130940226e-02 -1.8406756614895832e+00
    1.3385892230865126e-02 -1.8948863105209119e+00
    1.8827820850808110e-02 -1.6618303659270197e+00
    3.2973446115214931e-02 -2.4627105977774448e+00
    1.9331500822950032e-02 -3.2936713694437301e+00
    2.1833690416602179e-02 -3.2229214278340708e+00
    1.7684150571983623e-02 -1.4418840184830586e+00
    1.5843514672513069e-02 -1.2753541818613867e+00
    1.8124742168151617e-02 -2.0066320317641457e+00
    1.3427670759610618e-02 -1.9601920354429729e+00
    1.9256256628852542e-02 -1.7437873502884895e+00
    3.3808288763485309e-02 -2.3609108234820950e+00
    1.9378356937074064e-02 -3.1703290077621431e+00
    1.9853885855256916e-02 -3.1522472738988063e+00
    2.1740897238695479e-02 -2.1152220636540031e+00
    2.2096387932830787e-02 -1.9960177136370654e+00
    1.8594475991590989e-02 -2.2941006271840734e+00
    1.4797797818656842e-02 -2.2571422500439247e+00
    2.1139550707089821e-02 -1.9308215168141776e+00
    3.2955459189711780e-02 -2.0829878236155674e+00
    1.7731488211203628e-02 -2.5916888753747873e+00
    1.7691826764599721e-02 -2.9278340203711188e+00
    1.2983013167618178e-02 -1.6954816503588754e+00
    1.2172844182027851e-02 -1.5204444206930419e+00
    1.3788150513600448e-02 -1.9567718958116720e+00
    1.5907854710116895e-02 -2.3869613624417245e+00
    1.9494286916423371e-02 -1.7974632273261566e+00
    3.5084396833517537e-02 -1.9752515417270373e+00
    1.8526783292883459e-02 -2.0763963632357956e+00
    1.8309503937291177e-02 -2.3954464843496024e+00
    1.4499565434026531e-02 -1.6930361811481716e+00
    1.3379428099840492e-02 -1.5332412927706440e+00
    1.6071514966242775e-02 -1.8212735267899121e+00
    1.7269232728805348e-02 -1.9375282080209040e+00
    2.0570998679451002e-02 -1.6555856214124929e+00</input_scale>
  <output_scale>
    5.2631578947368418e-01 4.9999999999999994e-01 5.2631578947368418e-01
    4.9999999999999994e-01 5.2631578947368418e-01 4.9999999999999994e-01
    5.2631578947368418e-01 4.9999999999999994e-01 5.2631578947368418e-01
    4.9999999999999994e-01 5.2631578947368418e-01 4.9999999999999994e-01
    5.2631578947368418e-01 4.9999999999999994e-01 5.2631578947368418e-01
    4.9999999999999994e-01 5.2631578947368418e-01 4.9999999999999994e-01
    5.2631578947368418e-01 4.9999999999999994e-01 5.2631578947368418e-01
    4.9999999999999994e-01 5.2631578947368418e-01 4.9999999999999994e-01
    5.2631578947368418e-01 4.9999999999999994e-01</output_scale>
  <inv_output_scale>
    1.8999999999999999e+00 -9.4999999999999996e-01
    1.8999999999999999e+00 -9.4999999999999996e-01
    1.8999999999999999e+00 -9.4999999999999996e-01
    1.8999999999999999e+00 -9.4999999999999996e-01
    1.8999999999999999e+00 -9.4999999999999996e-01
    1.8999999999999999e+00 -9.4999999999999996e-01
    1.8999999999999999e+00 -9.4999999999999996e-01
    1.8999999999999999e+00 -9.4999999999999996e-01
    1.8999999999999999e+00 -9.4999999999999996e-01
    1.8999999999999999e+00 -9.4999999999999996e-01
    1.8999999999999999e+00 -9.4999999999999996e-01
    1.8999999999999999e+00 -9.4999999999999996e-01
    1.8999999999999999e+00 -9.4999999999999996e-01</inv_output_scale>
  <weights>
    <_>
      -5.6405689780317750e-02 2.4143454496164972e-02
      -7.5913404679812174e-03 -7.3663751202238314e-03
      4.6624868510878215e-02 -7.2629151015423443e-02
      1.5182562690247974e-02 4.5581485827138224e-02
      7.0866451394999063e-03 9.9420480499556162e-03
      -2.2519680723343954e-02 6.1943892802598386e-03
      -9.3005812396865506e-02 -9.5575908719671508e-03
      -1.0490117272650869e-02 -1.0405000368970770e-02
      -7.8146638796422113e-02 5.8598419127542732e-02
      2.1109363110823263e-02 6.1265956909692075e-02
      2.1187658563424919e-02 -2.1525657871366514e-02
      6.2726683866597193e-03 -3.8917186431587251e-02
      -3.7127284165515348e-02 -1.6682636380078553e-02
      3.6700088418059641e-02 1.7593682489855454e-02
      2.7760823743825842e-02 9.2245412155405312e-02
      -3.9577865687053404e-02 -1.0486936080789666e-03
      4.3078544681235009e-02 6.5362675494794242e-02
      3.0294721862124493e-02 -9.9137665097561126e-02
      -1.6135787781991658e-02 -1.4421836715189769e-02
      2.2502387577006742e-03 1.4696458575446866e-03
      -1.2304333588842723e-02 -1.5283398992800836e-02
      5.3480145545860502e-02 1.4046328189765230e-02
      3.9195506227860423e-02 4.9422077867059350e-02
      2.9920506038075168e-02 -2.5153557482623316e-02
      8.4905277245425643e-03 -2.7498702596417679e-02
      5.8670615860617423e-03 2.5872834097281780e-04
      -1.1571051252846434e-02 1.3380623821039075e-02
      7.6701254799661958e-02 4.0667575599137953e-04
      5.5637149093714167e-03 -2.6178723242289724e-02
      -2.7575650678952662e-02 2.1845005588869626e-04
      -1.2046876552715998e-02 9.2116956809559225e-03
      1.0863620772701893e-02 -3.9929239503442480e-02
      2.1211063511273769e-02 -3.7035794688397940e-02
      1.7073370094940789e-02 -8.7102465044871277e-02
      -2.0850735329330430e-02 1.8069235506704820e-02
      -3.3709725922446247e-02 -5.3590476345826144e-02
      2.2190230860938919e-02 2.1931413179707326e-02
      -5.1957043481653274e-02 2.0111240629989011e-02
      -8.0006637486879327e-03 4.3074236906178308e-02
      -4.9224186207236953e-02 1.9213967347257447e-02
      1.9013471991953745e-02 2.0233758276027896e-02
      3.9887260295810877e-02 5.5463414611349113e-03
      3.8434634395371842e-02 -2.1806476189345477e-03
      1.3585810097695575e-01 2.1613592472786273e-02
      -1.1558480466237779e-02 3.5689809350513170e-02
      -1.5577239913190669e-02 -1.8555159976286550e-02
      -1.1918947550638784e-03 -3.7985913279926925e-03
      -4.0467295194394501e-02 8.8945489848875608e-03
      6.5265591159193864e-03 -8.1484354446455909e-02
      -1.1203271494158945e-04 -6.5907954933268981e-02
      1.6929933125732270e-02 -1.7175465415317306e-02
      6.4616106987545606e-05 7.0071888550830283e-02
      3.2686672707573271e-02 -2.7113283048943948e-02
      -3.1858055028127989e-02 1.1850228991838640e-02
      -2.0338433715076015e-02 4.1165571772540141e-02
      -5.0523383926397637e-02 -6.5961826851771044e-02
      1.2680504856291930e-02 8.6641009530977683e-02
      -1.3906805261515953e-02 2.6759532126228967e-03
      3.2459815793587470e-02 4.1091575893473703e-02
      1.4617491254966719e-02 4.1022264307057459e-03
      3.9165763930043548e-02 -3.4667465755577366e-02
      3.4482664708532528e-03 -4.7293303332012461e-02
      8.5989114102091382e-03 3.9061550618620614e-02
      2.0967334239723464e-02 -3.0264122355242173e-02
      -3.8137573415058773e-02 2.7490636156399892e-02
      -6.7709081366896301e-03 6.2832848587037523e-03
      5.6858965227279075e-02 -9.1789308051142743e-02
      2.8175307611296947e-02 2.9402051411461579e-02
      -2.7500770334764328e-02 3.0427912471174764e-02
      -1.4069111402506407e-02 -5.3155175903770894e-05
      -1.3166401767309560e-01 9.9148431909019032e-03
      -5.1890610765948399e-02 -8.9542925531982172e-03
      -1.1297436071139323e-01 1.7087310137393820e-02
      3.9325541702992572e-02 6.9568302667253362e-02
      4.0621366954368049e-02 6.3367410899248262e-03
      -1.0098689158202390e-02 -2.0510777181416206e-02
      -8.0125993630362127e-03 -3.8872530347812760e-02
      2.7693390413387198e-02 3.8966476320025254e-03
      2.9634642211205674e-02 1.0798034639913506e-01
      -3.1992269717809788e-02 -2.0583456706514465e-02
      5.5778487183045893e-02 5.1825944491902795e-02
      3.5387025513172056e-02 -1.5066788654806468e-01
      -3.0993079427140923e-02 -1.2326628762074941e-02
      1.9530235005200996e-02 -7.5424628885159750e-03
      -4.0087789410983468e-02 -1.2757972836299459e-03
      6.0523255407424002e-02 4.0970594205246000e-02
      5.0395043697413149e-02 3.8998240792610814e-02
      6.3289801444629618e-02 -3.7042725756292021e-02
      -3.5870312437343791e-03 -5.6126224201198026e-02
      -1.2857630847309759e-02 -6.9837976810322054e-03
      1.5354610778860493e-04 1.9518130003361753e-02
      1.0354448452566606e-01 -1.7392416165509467e-03
      2.0003978552558588e-02 3.5557913582783809e-03
      -3.9770927427654680e-02 -1.9726490177166211e-03
      -4.3999217874626476e-02 4.6122903546921737e-02
      -6.7969527562379431e-03 -5.0475592243726289e-02
      -2.4947564254328050e-02 -3.6001157159249994e-02
      3.6560179382390166e-02 -1.1586380872723838e-01
      -1.9759397564959248e-02 4.3264695438018898e-02
      -9.6144857627225421e-03 -3.2497007085148792e-02
      -1.3235946459761509e-02 7.5371153530929330e-03
      -1.1797828689865955e-01 5.7200910036373460e-02
      -2.4843505269151640e-02 4.8067963069750620e-02
      -8.9548814813301056e-02 2.8170538236523823e-02
      1.0427391616055199e-02 4.8539553174530743e-02
      4.2739129938414937e-02 -2.9608596813063548e-02
      6.0826188072971778e-02 1.5994514566106774e-02
      1.7426393460074080e-01 7.6117728668104734e-02
      -1.9369178234867453e-02 6.4264770163285301e-02
      -1.5459148754008848e-03 -4.8403863644927011e-03
      -2.3963434309169310e-02 -6.1343796480510448e-03
      -2.0867867247731452e-02 -2.0872498608440679e-04
      7.2145253980568855e-03 -1.0645942176998298e-01
      -7.3236675643405576e-03 -8.2873149707791180e-02
      1.8413126373795385e-02 -3.1581359180120783e-02
      -3.0063552981735860e-02 8.5929587545574254e-02
      2.7643143498014291e-02 -5.5322830249566350e-02
      -1.0064252062506836e-02 3.3726734666953792e-02
      -3.5881967725604140e-02 6.1890307167259878e-02
      -6.9188306526812959e-02 -9.3574964084439702e-02
      1.4565432879643946e-02 1.1325175510290830e-01
      -1.4521278992494115e-02 3.6207510673609791e-02
      3.7797799151399886e-02 7.5184091301099779e-02
      1.7556601495275617e-02 -3.5101309321128905e-02
      1.2783845338060913e-02 -4.1149425719338689e-02
      2.9682226969309923e-02 -5.7725627963279950e-02
      3.6798042148177804e-03 2.5299759758843580e-02
      8.1020411209614587e-03 -6.5564960430003330e-02
      -1.4463266892847619e-02 3.0258703690179047e-03
      -1.0821367111627050e-02 -6.4580635164185662e-02
      -2.3130365830399875e-03 3.6693374293589633e-02
      4.6979532929707753e-02 9.2514585139599953e-02
      9.1736103169539021e-02 -1.6175025639773601e-02
      -1.0855987650488310e-02 1.8883733290145529e-02
      -4.8829774641814712e-02 7.2089235657161313e-02
      3.5179650926349046e-02 5.7549372499874109e-02
      4.8929573440443363e-03 8.1547063307697176e-02
      1.8979872713899382e-02 4.5397171282341907e-02
      3.9177369913395529e-02 -2.8558174399329370e-02
      -2.6051555296343894e-02 -3.9311654271976082e-02
      -7.2029026776458782e-02 4.5499915852667612e-02
      7.6397169532815959e-02 5.8105242104144160e-02
      1.4169420500355877e-02 1.0396015047734988e-02
      -3.5433081424596162e-02 3.2971499554319210e-02
      -5.9801981952727339e-04 3.5980591082617953e-02
      1.7295331328665134e-02 -1.6301466858777806e-02
      -7.8415101042493204e-03 -3.9715631172079754e-02
      1.5311877667860661e-02 -2.8021081247880844e-02
      2.1107904481091878e-03 -3.4367278791438839e-02
      8.2862153734228283e-02 6.1986204707576854e-02
      1.8590522557216063e-02 -2.8124050894128172e-02
      2.0886326849672288e-02 4.4536617820759135e-02
      5.4299473567849761e-02 -2.1530561681728167e-02
      -1.2526520875984555e-02 -4.9352851136648859e-03
      -4.0749207726303090e-02 1.1331853562444748e-02
      8.4925448448640404e-04 -3.4345901895889736e-02
      -4.8297788659000356e-02 -4.4030599032429077e-02
      1.3291383806178197e-02 -6.9086230686523878e-02
      3.1304964978086179e-02 -1.9437086171549916e-02
      -6.8989730547219769e-02 -1.3418073350808194e-02
      -4.9619902389460733e-03 1.6787088055742548e-02
      -5.3515911878758773e-03 -2.2800043459252187e-02
      -4.5053289391635824e-02 -4.0822997583904667e-02
      -2.3650364779857009e-02 -3.3886801089090528e-02
      2.8255771154426713e-02 8.7107783236473647e-03
      5.1622379885969558e-02 -1.5046004116245784e-02
      5.9745936813892925e-02 -7.5472027593949748e-02
      -5.1260234515326117e-02 -6.1343306957338008e-02
      2.1575168655045252e-03 -2.8952564059879924e-02
      1.5832097138572605e-02 6.5306755107314108e-03
      7.4923521048826545e-03 5.4525409844310049e-02
      1.7160433115933051e-02 -7.5087650902464602e-03
      6.6922233722235018e-03 -1.3614639222646288e-02
      1.7039611140200500e-02 -5.4832215302841533e-02
      -1.5356281711488498e-02 -1.8887614294461178e-02
      2.8063606809732616e-02 1.1359500131238770e-02
      3.4125188412102339e-02 1.9641568191150049e-02
      2.5940864262493236e-02 -7.7538704211327809e-03
      -3.4773937375880026e-02 1.2732932724067439e-02
      1.3299742890982813e-01 -4.5673407443799496e-02
      -4.6364077411092733e-03 8.6494113577389370e-02
      -7.5246429849560427e-03 3.0172839041220766e-03
      -1.7351294345546765e-02 -9.1639271323530093e-03
      -3.1277861138714766e-02 -6.0985389680628319e-02
      3.6625214896111920e-03 -2.7293152232995273e-02
      3.6639394558889986e-03 -2.4494116609128980e-02
      5.9096182873434752e-02 2.7658709514351235e-02
      -5.1126092323215182e-02 1.0550141515900333e-01
      6.9954040176972388e-03 2.5132961340572781e-02
      -1.2499986604336696e-01 4.5473989750421835e-03
      5.2748744075087922e-02 3.4970465625617286e-02
      2.1469771502002504e-02 2.1246258750465336e-02
      -2.2434538368256486e-03 -1.9062832183876374e-02
      -9.1122902996605727e-03 -1.0794025883397802e-01
      -3.3067122807103125e-02 1.8392968419089359e-01
      4.0017532590023684e-02 1.0175773691298366e-01
      1.2818897845274316e-01 6.6260795028331041e-03
      4.0414710716783504e-03 5.3632517525343641e-03
      5.8208284090214925e-02 9.1613131882726517e-02
      9.7081644202945849e-02 8.1000149386933437e-02
      1.1544687005810352e-01 1.1281186559076480e-01
      -6.5531449961816731e-03 1.7898147297375527e-02
      1.1852557489713660e-02 -1.9457081560971687e-02
      -4.0909365368748445e-02 1.3872958463174859e-04
      -9.3882326474606134e-02 6.2013726299263910e-02
      1.4823346406498733e-01 7.8700491737939277e-02
      -6.4677745587900706e-03 -7.4264830197859330e-02
      -2.3753550505843544e-03 9.0681297103139727e-02
      -4.7166904930095198e-02 -5.2243812423197885e-03
      3.0723887839860509e-04 1.3492015178453409e-01
      2.9712083610534751e-02 -3.6463050537816115e-02
      -4.5830663124958714e-03 -2.4500625763844500e-02
      3.2100231299007492e-02 -6.2093218221158542e-02
      7.7899218954583682e-02 5.8079896493859549e-02
      -3.4134160358551484e-02 -6.8762482038846759e-02
      -1.1275385724083495e-02 9.2021484176178711e-02
      4.3756973720633890e-02 2.5295606706410581e-02
      -2.4308672798120233e-02 -2.7668521912565427e-02
      -5.7918937979962705e-02 7.8279580701079658e-03
      -1.0196634044629323e-01 -5.1419817637389759e-02
      -8.0072683404847869e-02 -7.0111264551041372e-02
      3.8855937090263450e-02 -1.1321691410758741e-01
      5.7750090954349333e-02 -6.3840500330069563e-02
      -1.0281872193194384e-01 1.2717921180754510e-02
      1.8579072597543624e-02 6.2989398547551770e-02
      -2.2243681645543089e-02 2.1457016891208616e-02
      -8.3375140459545916e-03 -1.1202128066330146e-01
      -1.0081675692168021e-02 -2.4476306493730542e-02
      7.1155872417516711e-02 -9.8834159082514142e-04
      1.6432868863464653e-01 -3.9917330821317674e-02
      1.0245922132588882e-01 -1.6358486951582213e-01
      1.3447196153636921e-02 -1.0588178337922578e-01
      1.2811802282039526e-02 -5.8862586437572140e-02
      -1.9459379833166989e-02 3.6320285651449652e-02
      -4.9953011884773080e-02 4.6780716851456565e-02
      -8.5488224337422911e-02 -7.5297935072252964e-02
      4.1173322708660268e-02 -6.2448935085439791e-02
      4.6862085076617772e-02 -1.0223042586929315e-01
      2.2670738775329095e-02 1.8790941503837682e-02
      7.0012446601208256e-02 3.9686202834737956e-02
      4.7377665495903921e-02 1.3972491394837533e-01
      8.7809118668744426e-02 2.6104480826714262e-02
      -6.9538267268733717e-02 3.5984553396342989e-02
      2.2212256373650702e-01 -8.4037750201712613e-02
      -3.4179105924352554e-02 1.8853224563382884e-01
      -1.8635075604488915e-02 -3.6365269131131271e-02
      2.8226224329609584e-02 -7.5979470009019556e-02
      1.3476227657789266e-02 -2.8013972247982123e-03
      -1.8225993130259042e-02 -1.4413907125313941e-01
      -2.0743329901414906e-02 -7.6984108879202415e-02
      6.0594896732542806e-02 -5.9502092333776020e-02
      -1.4097762136922945e-01 1.6955910876966368e-01
      -1.5679065599501614e-02 4.4987421664798043e-02
      -1.8309192260090723e-01 6.1429360425106945e-02
      8.7557965405215127e-02 4.0186211582487960e-02
      1.1056782741353337e-02 6.7679944424653055e-02
      -2.5492541142913119e-02 -2.7122574726785521e-02
      -2.5816651501961333e-02 -9.7111478982680757e-02
      -8.4077127673946005e-03 1.3395590000814395e-01
      5.6452648896946449e-02 8.7184586456022325e-02
      9.5100704295124211e-02 1.2511031706421588e-02
      -1.3217481405261348e-02 -1.0221733233816883e-02
      1.4518528036496210e-02 6.7350455520591421e-02
      4.9807892107303200e-02 1.0383865088822003e-01
      8.4861573776901414e-02 8.8148374994499845e-02
      3.8142371009748646e-03 4.2221871848522885e-02
      1.6211741577850457e-02 6.9456702604460355e-03
      -2.6300175484028378e-02 -7.6336201327191775e-03
      -9.0734802233481140e-02 5.6471632761187288e-02
      1.2398646577511149e-01 8.3796321712379288e-02
      2.0796110332539527e-02 -5.2154478392100821e-02
      2.5413000204041153e-03 7.5637148368868923e-02
      -4.0559896592376361e-02 3.3758199049558409e-02
      1.1298736126048295e-03 7.4970550091853369e-02
      4.9093298356867425e-02 -5.4360165828594695e-02
      -2.5872988962836736e-03 6.5220328891272463e-03
      6.4382617649289500e-02 -3.1584258531478525e-02
      8.9601625781009608e-02 9.5582246087567886e-03
      -5.5319726830297067e-02 -2.8734793622335563e-02
      -1.1305240962277169e-02 5.4462012654287774e-02
      3.1381614053850024e-02 7.3797741511803117e-03
      -2.5547166534238268e-02 -1.5637020011612518e-02
      -7.5316924936166221e-02 3.2573705412626201e-03
      -5.1494791512922591e-02 -2.1691278814507359e-02
      -4.8900576026023518e-02 -3.1196522298481168e-02
      4.0265908639401778e-02 -7.7000307144556107e-02
      -2.4229887364895812e-03 -3.8924551663676400e-02
      -7.8358791917383555e-02 -1.9271010786200884e-02
      2.7529489290460785e-02 4.1140672121922219e-02
      -1.7450983306505033e-02 2.8738906826380130e-03
      -1.6351222047701255e-02 -1.0592982047269596e-01
      -3.7374414102640273e-02 -2.5280085841254310e-02
      4.9697026800742380e-02 9.7876151753412081e-03
      1.1672679858114643e-01 -5.3378365431605186e-02
      9.2565625587182482e-02 -1.4263792372453413e-01
      -4.3435811486430059e-03 -7.4900714379097441e-02
      1.1508159477332552e-02 -3.7533701906046088e-02
      -1.2679867830477445e-02 4.8745489964456601e-02
      -1.2583264747611242e-02 4.0334883368814994e-02
      -4.2519263352918973e-02 -4.6340343346022710e-02
      3.8964348492884542e-02 -2.3909426302627025e-02
      2.3788164332926222e-02 -9.8542459184297701e-02
      2.2320140125956373e-02 9.4207767139526544e-03
      4.6072605862459190e-02 7.0522329999190541e-03
      1.6674295944808716e-02 9.9934999361605492e-02
      8.1100519087849238e-02 6.6538826531650462e-03
      -1.9362882015684292e-02 2.7987558817170743e-02
      2.2505157712843440e-01 -4.1828380203809308e-02
      -1.0725760667842438e-02 1.7140183624735611e-01
      -4.4002738895553908e-03 3.8299260150465148e-03
      -6.9720341202538921e-03 -4.0778960076917226e-02
      -1.6040580826052447e-02 -1.0202185691104674e-02
      -9.8402906560711885e-03 -1.1935524818037259e-01
      -4.3069720502069253e-02 -5.2630929822863215e-02
      3.9948330717520471e-02 -2.0798256120797543e-02
      -1.1770743857349913e-01 1.2912929084125233e-01
      -2.1825094068974107e-02 1.9735149892046756e-02
      -1.6892776887307451e-01 7.7305672446455198e-02
      6.1110934430206924e-02 4.8669738369968546e-02
      2.3707366977329881e-02 3.9825956056415722e-02
      -4.9760487166704438e-03 -9.7110465187104054e-03
      -2.6956657554879155e-02 -4.4313148768476460e-02
      -4.9498713329589692e-03 3.7525230277965831e-02
      3.0686730306972543e-02 7.0283271456371962e-02
      4.4086802026806426e-02 6.1937570207293126e-03
      -3.3166380982687503e-02 -1.6726072342733930e-02
      -1.1590242474670076e-02 2.7448642619336584e-02
      -1.5244536206762456e-02 2.9774197174285248e-02
      -1.6647285997764941e-02 1.7978028825610733e-02
      1.0640660111890672e-02 -2.0648449168930837e-03
      2.0551497606714701e-02 3.7916386917448155e-02
      -3.8595068894342964e-02 -3.3761100937070498e-03
      -6.4971981215066310e-02 2.2097275003385829e-03
      4.3806046246473544e-02 4.8349248847896355e-02
      2.6453363573047412e-02 -5.9647457980051884e-03
      1.1071175117088135e-02 7.7019688564875701e-03
      -1.7592649837782078e-02 9.5480847414082320e-05
      -2.5783037232781313e-02 4.6208214056113394e-03
      1.9197430069684458e-02 -1.7308863384125812e-02
      9.5072415241528613e-03 2.0203010936568573e-02
      4.6922987391170727e-02 -9.6963251422820668e-03
      5.5124307309987686e-02 6.3560477997803302e-04
      -1.8155762636681672e-02 -9.3810204945038583e-03
      -1.1991361250549105e-02 1.5612810037864841e-02
      2.8005484489460226e-02 -4.6202520876181333e-03
      -3.4870296097353204e-02 -1.7561425145171488e-02
      -3.1333979062027034e-02 3.7095228190785617e-03
      1.7518327459102055e-02 -3.5870505068625415e-02
      -4.8155558045015036e-03 5.3432112548362429e-03
      3.0781481163787046e-02 -3.5625736008127157e-02
      -1.0618921948832136e-02 4.7100280326942725e-04
      -7.9510371754371815e-03 8.7248930826574322e-03
      -1.9436736831356021e-03 9.1032782349576413e-03
      6.1432132138933421e-03 -2.1638285999317410e-03
      -1.7999666530249162e-02 -6.4593136995794945e-03
      -2.1896633214456292e-02 2.4176047377014458e-03
      1.1257036534760130e-02 1.1270514368364385e-02
      -5.9861303513650613e-03 -5.1453282987956091e-03
      5.6806724811486926e-04 -4.3478403301390536e-02
      -2.0457429287891009e-02 -4.1337914153534668e-02
      -3.5204655443554292e-02 -1.1902266576537828e-02
      -2.1112477583068355e-02 1.2227581472220763e-03
      -1.2454431722225736e-03 4.0806079389412248e-02
      1.8033428969844639e-02 -9.7334325936093685e-03
      2.5647997170501612e-02 2.6364569256851010e-02
      2.6722139186108287e-02 -5.9094290334626813e-02
      1.9984084882720542e-02 1.5441770868011814e-02
      4.3757078772208045e-02 1.3263759053599765e-03
      -9.6988871901514326e-03 4.7327240102155332e-02
      1.1296760748961951e-02 -2.4579803736616439e-02
      -5.7225956244387390e-04 -1.6557229085356256e-02
      4.4396308769435525e-02 3.4974503564503157e-02
      -1.0693646220082979e-02 4.1522497407432336e-02
      1.8682035759858023e-02 8.8606747142953284e-03
      -3.4325629303366155e-02 -3.0736610906235688e-02
      -9.7427310871588957e-03 -1.3284349674096047e-02
      -1.3301605032791234e-03 -3.4649636128645300e-02
      -4.3598311868274411e-02 -4.0367413345298551e-03
      3.0288356983345956e-02 2.5679612872814471e-02
      -3.9943502492127810e-02 4.9027278437743939e-02
      -1.4831919763548839e-02 8.9388834132874042e-03
      -8.1842553123998810e-02 3.2740821529676174e-02
      4.3206538355257736e-02 -1.9859432263704110e-02
      1.6688261706565396e-02 4.3506736352665965e-03
      5.8531033633972211e-02 -6.8127819062998776e-03
      -6.0630184837693613e-02 3.2680878922757076e-02
      -2.9708555396312966e-02 -3.2358014885560345e-02
      -3.4703439997806028e-02 -3.2832886423762304e-03
      -3.0887552492849736e-03 1.6783955864919878e-02
      -3.5171422300344188e-02 -5.5534419734638289e-02
      -2.4523692389394915e-02 3.3222628178306369e-03
      -3.0900052046506584e-02 -1.0441348119858014e-02
      -2.1768516154664377e-02 -1.0020293675295958e-01
      2.7916103703852512e-02 -6.2587737999843893e-02
      5.6831236767668795e-03 8.6703110173262737e-02
      -1.9718633220705425e-02 8.4623389634044463e-02
      -4.5353382912568393e-02 -4.6648507393847502e-02
      -4.4179708360858216e-02 -1.9916749438978663e-02
      2.0944350850298020e-02 -3.9812510749968458e-02
      8.7230891067724525e-02 -2.9977268425325762e-02
      -3.3240273881745663e-02 -4.2117245266198228e-02
      -5.2993814550065653e-02 -5.5183693098688272e-02
      9.5270361808247363e-03 9.6196030791801026e-03
      2.3430727913283104e-02 1.3161383544826799e-02
      6.2320662171134814e-02 1.5682863480789005e-03
      4.1005798416997641e-02 -2.1834134071166106e-02
      -3.7119130584111759e-02 -2.5214195778716978e-02
      -2.0114411300637573e-02 1.0275590779176540e-02
      -5.8259258642078156e-03 1.9045901018974219e-02
      -4.2442102344117487e-02 -2.6262262139696350e-02
      1.6256479306171235e-02 -2.9495482594076469e-02
      1.7336784898247290e-02 -1.4143038140938473e-02
      5.9859809729938132e-03 7.6951886578935980e-02
      8.0124492390702517e-02 1.4766745565326384e-02
      -2.2889468145918544e-02 -1.0286500592256102e-03
      8.9752843635017981e-02 7.3437889577814844e-02
      -5.6973945210783215e-02 -1.3221011044336086e-02
      -1.2136930573851753e-02 1.7253980363850573e-02
      -4.4079439905598129e-02 8.6385329985052342e-02
      -1.0532971196046868e-02 4.9748772918978855e-02
      -6.2916524148637007e-03 3.8586345126262418e-04
      -6.7243035899639939e-02 2.1646194630371585e-02
      -3.2448560342185233e-02 -1.4710653705809101e-02
      -2.8375389536329499e-02 2.3334072267081733e-02
      -8.5471351554924108e-02 -2.1195255475564582e-03
      -1.0227625420427916e-01 -1.7341182716697913e-02
      1.6975028059685145e-02 3.6146999141579622e-02
      -1.5719495668480493e-02 -1.0818697149879276e-02
      5.7846789256426806e-02 2.4928679021573093e-02
      8.8820015592783290e-03 -4.5128169378779809e-02
      -8.8861025577738999e-03 3.0777871384382149e-02
      3.7698925657459373e-02 4.0339962262773386e-03
      -6.0779733507090490e-02 1.1851728117214084e-03
      -2.6643177728484627e-02 -3.5581249857520647e-02
      9.2801379199243996e-03 -1.1988994344844376e-02
      -6.2765064026402195e-02 3.1255807511473381e-02
      3.2880817224788243e-02 -5.3298373089326605e-02
      6.7355969869584545e-02 7.7010226048541495e-03
      -3.7174254842771405e-02 -4.7455558716776071e-02
      7.5546633706050081e-02 2.9118459972018892e-02
      -4.1683243363630211e-02 -4.0792188407518699e-02
      -5.2637034263119928e-02 2.8259769818330944e-03
      -4.6310994518867492e-02 4.5923170668892462e-02
      5.7815884683981630e-03 2.6871892867795313e-02
      -4.9903526015101417e-02 4.1203554749132343e-02
      -6.2915362054815765e-03 8.4967963164539487e-02
      -2.4039439651861796e-02 -7.7160374083035402e-02
      4.2343244596170428e-02 -9.5063976291276924e-03
      -1.5119549780229333e-03 -2.9810822420790202e-02
      -2.6509267495531886e-02 1.9994422705931634e-02
      6.5289721557566837e-03 -3.8612518968309445e-02
      5.3940465211396293e-03 -6.7043090770205968e-02
      -4.7076239305001134e-02 3.6755884384314950e-02
      -4.7148334102523276e-03 -1.0671032242919999e-01
      -7.6917354238491067e-03 -5.7042316144162067e-02
      -2.2628669435618122e-02 4.2404324432586862e-02
      1.0265982615629799e-02 -1.2926334983090457e-01
      -2.8769001073589998e-02 -2.3892056446705511e-02
      -3.6953438735043677e-02 7.1751722039000820e-02
      2.8048616680153127e-02 4.6216569942380901e-02
      -2.0525554158016705e-02 -4.6622816578715642e-02
      -4.9317788116762629e-02 -4.1239130414478138e-03
      1.0925791802186561e-02 -1.9567175290334377e-02
      6.8433969081233892e-02 -7.1034210170209276e-03
      -1.1596708799427148e-02 -4.0386964714034530e-02
      -1.8639948278527503e-02 -2.6624103429919090e-02
      6.9621249565808160e-02 -4.7073928172270555e-03
      3.0338447946253604e-02 3.5028315872086956e-02
      7.3308484167183205e-02 4.3610899231126439e-02
      -1.8896973936359304e-03 -2.1466943126108171e-02
      -5.1019664265459411e-02 1.6815455418182641e-02
      -2.6881752411839752e-02 -1.5956916715319944e-02
      -1.4449449027625513e-02 -1.0392126637828330e-02
      2.3172538550691206e-03 -1.6911010917458637e-02
      -7.0433895810470730e-03 -1.3317392310031578e-03
      3.2511350196213436e-02 4.1178446197097672e-02
      3.8443223762364510e-02 7.9649745411326481e-02
      7.8492995573745353e-02 9.2355100712868024e-02
      -6.1557139909151841e-02 9.0493095560185335e-03
      7.8406281524386112e-02 2.2180608142908873e-02
      1.4173580692628593e-02 4.4161410707947166e-03
      3.1571333242633101e-02 1.2925874812526026e-02
      3.6402974252162011e-02 3.8938525979165729e-02
      -1.4783837354096961e-02 3.1823533066221175e-02
      4.3902421362961505e-02 3.2524410179544855e-02
      -3.9675049736544746e-02 -2.9334988941513984e-02
      -3.3150391793225695e-02 -3.7038338548126826e-02
      4.0346570599716733e-02 1.5498148845713357e-02
      -1.0811528222596076e-02 2.4468235937922769e-02
      -8.3351177976959165e-02 5.3126919362339903e-02
      -1.6556047656154611e-02 -2.0672180451480872e-02
      -2.3832914748510500e-02 -1.1600949278037972e-02
      4.0109186709980690e-02 5.5720849698290241e-02
      -3.3255175545548964e-03 -5.6037862833893358e-03
      4.1386760600556301e-02 3.8564858447651854e-02
      -2.1280677275891887e-02 -1.3964735395498355e-02
      -3.9691047890366461e-02 -5.1889216258618392e-02
      -1.4649753764175929e-03 -7.0330862730316135e-02
      3.4833197263900106e-02 -8.8818920203184003e-03
      -1.0612143546469071e-02 6.1845575137268995e-02
      6.1807175352692978e-02 -2.0211647295806930e-02
      2.1518359880788193e-02 6.0277494670201229e-02
      5.4359074725791696e-03 -3.7076777163819415e-02
      2.0197847024172273e-02 1.7636000944783996e-02
      -2.6396473413812342e-02 -2.9198472249075205e-02
      -5.3890441170403078e-02 2.1175401154445380e-02
      -4.4003782398264066e-02 3.6115229822928242e-03
      5.5354569371863721e-03 -2.7664353920556314e-02
      -1.3161464043941288e-02 -3.0799197541345649e-02
      3.1185376094085934e-02 7.1401246649534747e-02
      -4.7026015918887949e-02 -3.3950000290043893e-02
      3.4375213207610215e-02 -9.1511920031520384e-03
      -5.8388904729503054e-02 3.4312928542613169e-02
      -1.7550820643364395e-02 -1.6679252928630085e-02
      4.5834790914976060e-02 -2.8305967525413658e-02
      2.9648544841292677e-02 7.1201883492940238e-02
      4.0070287300643347e-02 5.8366368776970035e-04
      -1.6228590067775543e-02 7.9721311781771158e-03
      -7.9895328125558759e-02 2.3936042118075110e-02
      -1.6679782767230696e-02 2.9477934090987753e-02
      -1.0160705785012297e-01 8.3254237000890796e-02
      1.9873532314088557e-02 5.2147377031210890e-02
      2.6958387830271567e-02 -4.2041624620113176e-02
      -3.4296457911902868e-02 -4.0708529481137866e-02
      -5.7420756255019766e-02 2.9738901955396812e-02
      4.7165508655907983e-02 3.4891744622814302e-02
      6.8307431173399219e-03 7.5083511572681894e-02
      -3.5307344157690740e-02 3.7748800148689872e-02
      3.1905024109845012e-02 6.0421112506613153e-02
      3.4926552458247578e-02 -5.6929745055978136e-02
      1.0601855482398339e-02 -2.0297052667202116e-02
      -3.7579609885566049e-03 1.0010701711502519e-02
      2.5272598582625921e-03 -2.2607764609169793e-02
      8.4149277973221637e-02 1.1336239398212326e-02
      4.3264430015771890e-02 2.6300168271592705e-03
      2.9116421974334127e-02 1.0048629330604616e-02
      8.2677674536075583e-03 -2.8880893870626492e-02
      -2.1806266378229882e-03 -3.0746269760177050e-03
      -3.2356979940759360e-02 -1.4391233516697849e-02
      6.0745216178837658e-02 -3.5061055618951578e-02
      1.9386981935512825e-02 -2.9218679251736927e-02
      -4.5207539345080254e-03 -3.9005227828951675e-02
      -1.9907088275854825e-02 1.0473244472997221e-02
      -1.6630400394358664e-02 -5.8647801115085003e-02
      9.4034014270569788e-03 -1.0753220208696256e-02
      2.5753571020995848e-03 -6.9942095002835339e-02
      -1.7817429813102796e-02 -2.7165976896572037e-02
      -3.7339624388327511e-02 -5.4288890192305123e-02
      1.3713667659495617e-02 -1.8604313797379791e-02
      -2.7522685286719802e-02 7.7170207623852686e-04
      4.1222656503926876e-02 -1.9106603198595317e-02
      -5.4759397141123260e-02 -1.6903891800124072e-02
      2.2165658442459619e-02 4.0898902483489253e-03
      1.7794149278714255e-02 9.5145134773396770e-03
      2.0682743723500516e-02 2.3393419149254056e-02
      1.1263791579324443e-01 2.9192337181059538e-02
      8.0682086110131831e-03 1.5069291599612974e-02
      2.7594915281952907e-02 -4.7051683551497671e-02
      7.6774017498624824e-03 -2.2940962198974818e-02
      -4.0956638653491606e-03 1.6494962792019011e-02
      2.8590503947576344e-02 -3.3924409349415749e-02
      3.6756018322695337e-02 -2.7629547697021594e-02
      6.2048368229598782e-03 -2.0198702636918465e-02
      4.6862298608002138e-02 1.7065657650393465e-03
      4.5444425841255721e-02 3.2295651110830013e-02
      -3.5051353281888839e-02 4.0846321291086833e-03
      -2.8509752227152112e-02 2.1402832887529029e-03
      -3.5054524821998251e-02 -5.6934031432534289e-02
      2.0948940471258892e-02 5.1588734633726978e-02
      -1.0608771325582857e-02 -4.0936173258984982e-03
      5.3538029419576874e-02 1.4311624974228880e-02
      -4.0791705531327452e-02 4.0073042390984484e-02
      2.0947702122169641e-02 -4.1447010925617644e-02
      -6.3106978454727708e-02 -5.1643508162504098e-02
      6.4749481933181974e-02 2.7800112906136019e-02
      2.9054149661811822e-02 -7.2899559189382179e-03
      -3.2251783788915030e-02 3.1749082605125441e-02
      -2.7344387194076173e-02 -7.8580298578803873e-03
      4.3165051118898366e-02 -7.9174059805173780e-02
      3.9849963432731325e-02 1.2167014590985690e-03
      -1.9328274763740824e-02 4.3629610724757253e-02
      -8.8358508343564270e-03 -1.6717347022215143e-02
      -1.4014134565205580e-01 1.5944072701707192e-02
      -2.8566483973140482e-02 1.9540656844365553e-02
      -1.1204277779906463e-01 3.9571224874933066e-02
      3.0287575841564763e-02 5.5529212051026122e-02
      2.8950242575308521e-02 8.7861491263281307e-04
      1.8830409990087673e-03 -2.4452506435983127e-02
      -6.4914338291413680e-03 -4.3365610852680078e-02
      2.7457600503422486e-02 2.8814584239131993e-02
      2.9484382546228035e-02 1.1947229113594221e-01
      -4.1678767007882783e-02 7.2545061052879077e-03
      5.0516840060285596e-02 6.6061762452172865e-02
      3.7397135607104670e-02 -1.2306039488153958e-01
      -3.2740169714063100e-02 -2.9621393266954323e-02
      2.3107072080753844e-02 1.8789284861794257e-02
      -1.5394268127616528e-02 -1.1285291310303054e-03
      4.8720586241599272e-02 4.5445927983949384e-02
      3.9833584193109957e-02 4.1802017268704229e-02
      5.8153231092889515e-02 -1.5321193415053263e-02
      1.4200731438943858e-02 -4.6780483713368390e-02
      -1.2228515531085232e-02 1.5811521069058636e-02
      6.0812488536383128e-03 1.5319146784190441e-02
      1.1938064752277917e-01 -3.3093868066714320e-03
      2.5162202091916275e-02 -1.7998969776903767e-02
      -2.8347030111443156e-02 -1.1316999194852122e-02
      -2.8597595565149330e-02 3.1356387203514031e-02
      -1.3564124661325909e-02 -5.5917426173228833e-02
      -1.9824574639475963e-02 -3.8214503372807282e-02
      3.6169393895251173e-02 -8.9048379428674204e-02
      -3.6387519060253976e-02 3.0887354283113028e-02
      -1.3475032696267595e-02 -3.0587030505576925e-02
      1.6440758716235886e-02 -1.3280943529683380e-02
      -8.7704944924606829e-02 4.9565772259367577e-02
      -3.8559628336357211e-02 5.4252407435626697e-02
      -7.2659594196901198e-02 2.3386800975783540e-02
      2.7495130065503331e-02 5.1881501682512106e-02
      9.8769952899677299e-03 2.3850357884832212e-03
      8.2738687136182515e-02 1.1562802601191746e-02
      1.6841901595591524e-01 6.0429312533192017e-02
      -1.9086154524643333e-02 7.4187798539272709e-02
      -1.1360909477983471e-02 7.6875568454836830e-03
      -2.3960612174420998e-02 -1.4511836795554990e-02
      -1.4481707830622897e-02 -8.5447732680974022e-03
      -2.7084947940398166e-03 -1.0344206732876718e-01
      -1.4713382316465691e-02 -7.8204158494455472e-02
      2.5035646150132713e-02 -2.0418389394733536e-02
      2.2437299259125194e-02 8.1307672769540665e-02
      2.4489532123783783e-02 -2.0428549038300032e-03
      2.4088668802340857e-03 1.3242436147591782e-02
      -5.8018803306002141e-02 6.2934029432799243e-02
      -5.7819356564400959e-02 -6.9660504187690916e-02
      9.8439129593368389e-03 1.0793497414587370e-01
      -2.0199488326175363e-02 1.1029618576999167e-02
      5.1227700371019362e-02 5.5824827692031072e-02
      9.6459376921513695e-03 -1.1161473537436364e-02
      1.0043956303164483e-03 -5.9802942050571080e-02
      4.1868496581452504e-03 -3.8841040210352361e-02
      2.5304766944854916e-02 1.0879415125842447e-02
      2.8335307715294421e-02 -4.4994597796020858e-02
      9.6746557488793516e-03 -2.0182852396763644e-02
      -1.6178830907051408e-02 -6.7213373650729241e-02
      -1.7837690730605872e-03 3.6733494027616165e-02
      5.5578458781995715e-02 4.5019195324301771e-02
      2.2550752518499560e-02 2.6430322973491887e-02
      2.8327831242647740e-03 -1.3768923774904188e-02
      -8.0706072718828070e-02 7.9113071867200874e-02
      2.6591094311916762e-02 7.8226894318436158e-02
      3.2118303989052369e-02 7.3114521014629799e-02
      3.6714523039483464e-02 6.6818113075450020e-02
      1.3269480348894067e-02 -7.9661333492441859e-03
      -1.1194549791235874e-02 -3.5101670855641129e-02
      -1.8797365788001810e-02 -2.0811916025955206e-02
      9.7495387971299113e-02 6.1669943384286358e-02
      1.6824275114428487e-02 3.8555499683216664e-02
      -3.5022757225396918e-02 6.7780333786619639e-03
      -1.9084660242451135e-03 4.8647954440670702e-02
      8.9721664694660426e-03 -8.6962659309022059e-03
      -2.9976440278011562e-03 -5.3441567335322286e-02
      1.3238857733555886e-02 8.4166267961982121e-04
      -5.0316071979846283e-03 -2.0395641599134928e-02
      3.1309796837579049e-02 8.0609530017960854e-02
      -3.7942710872515646e-03 -6.1156955523016419e-03
      3.2267586506229219e-02 1.1694636421324648e-02
      5.8765517117046771e-02 -3.0061705866272517e-02
      -1.1539366987336893e-02 -7.8175928760209727e-03
      -5.3456061120291450e-02 5.1288991860345377e-02
      4.8334169482836302e-02 -1.7358722001431164e-02
      -5.7617712046414603e-02 -4.4789431221689442e-02
      -1.1330191674474554e-02 -8.9946567449537551e-02
      8.6048387190369134e-03 -3.6077505863743267e-02
      -6.2548472006050904e-02 -2.7468407492182729e-02
      -1.9841863066028774e-02 3.0233280341347403e-02
      -1.6751076375930978e-04 -3.4209642874509810e-02
      -2.1083587438375580e-02 -3.2933543816357033e-02
      1.2408513226971609e-02 -2.7574507353547380e-02
      7.5705161751224354e-02 3.2706843505263278e-03
      4.0482462713265319e-02 -9.9135844257283307e-03
      2.9476956780382479e-02 -3.8152878879647786e-02
      -3.1575119317482206e-02 -3.8983610582530769e-02
      5.8321049362794093e-02 -2.3806118958270880e-02
      -4.5275534833209522e-05 3.7927089948736645e-03
      2.6972124344859499e-02 2.7760111388366367e-02
      6.8462808672819772e-02 2.3077863451583181e-02
      -2.8435229745651706e-02 2.1190708809954384e-02
      -7.9929754656975129e-03 -6.2043511230057292e-03
      -8.2614386057475939e-03 -1.3282449159353518e-02
      1.4990208366194592e-02 1.7295982524695643e-02
      3.7626499142695474e-02 3.7768256794160432e-02
      8.6547912844470408e-03 -5.9189441786824948e-02
      -2.4449122628214151e-02 -1.5645273617509038e-02
      1.2400613831140465e-01 1.0068234609281987e-02
      -3.4132365217040252e-02 9.1374749038209094e-02
      1.4721658902916995e-02 -9.2096816238288956e-03
      -2.1769289683884332e-02 2.5560935740030585e-02
      -3.4687195143484624e-02 -1.0145777953866376e-01
      -2.3330665891616406e-02 -4.4012708454823878e-03
      -1.1454078318728056e-02 -3.4866210984017570e-02
      6.0180613850040109e-02 4.0058937985875287e-02
      -3.6673290694756680e-02 4.4974149951949031e-02
      -1.8890491354528843e-02 2.7863586373731018e-02
      -7.6650647470926175e-02 1.3678390546065374e-02
      5.1095059661125590e-02 2.2597732600252898e-02
      1.0890678028811213e-02 9.1982978418842093e-03
      5.9954147722487113e-03 -4.8119068421656301e-02
      -1.1566178591198445e-03 -1.0318885216643163e-01
      -2.5037306812699462e-02 1.2613249958356448e-01
      4.6795310086802794e-02 5.1607247999567077e-02
      8.8111219847876010e-02 1.9499971108954971e-02
      -3.8201473129881097e-03 -5.3565148868347554e-02
      1.3355822636752121e-02 4.4899570804127979e-02
      6.0404760559678791e-02 9.1238508841131882e-02
      1.4619155712645238e-01 4.1808472327479827e-02
      -6.4481585889404188e-03 3.2338007419541126e-02
      -6.5443170372724855e-03 8.1868017966270495e-03
      -1.9493618441593634e-04 8.4798593920582810e-03
      -5.9384261783887435e-02 2.0861166151258825e-02
      1.4144816862864124e-01 6.7188148061640446e-02
      8.3447557182929812e-03 -6.8230132813101224e-02
      4.9556884197091292e-03 5.4813455187878855e-02
      -6.3233431725256820e-02 -1.2178001281895633e-02
      -8.0670091816572170e-03 9.1942882260900555e-02
      5.0206369685009078e-02 -6.6571847562785266e-02
      2.9955987876657670e-02 1.1559688990304141e-02
      6.9884662509594575e-02 -2.9635067636319921e-02
      4.9320104334365830e-02 5.4594587161118591e-02
      -6.1388211497300484e-02 -3.2682100689161900e-02
      -1.1617990648165539e-02 5.3868107452260887e-02
      5.9273017566499921e-02 1.3252628245584441e-02
      -3.3689242856794074e-02 -1.8560186043948868e-02
      -6.3296591794264764e-02 4.4454271379966874e-02
      -4.3716844924103611e-02 2.6473643366609497e-03
      -6.5113667327581282e-02 -3.3593744773599797e-02
      5.3328262855696466e-02 -5.7699240876419929e-02
      2.4588414096228042e-02 -4.8571049194607439e-02
      -8.9492902329140103e-02 1.2315019090545316e-02
      4.0595372467262855e-03 8.5480814666754265e-02
      -1.6148235579074247e-02 3.0442437817610132e-02
      -2.0160891034972359e-03 -1.1320097870145057e-01
      -2.5459782207726465e-02 4.3002138074817358e-03
      1.2310669682083084e-01 1.4844021435518891e-02
      1.2555173476665180e-01 -4.5230839431762836e-02
      8.0245411068852190e-02 -1.4314743575773392e-01
      2.3960451999458007e-02 -9.5490419146682701e-02
      8.3137575450011169e-03 -3.7537624790406975e-02
      -3.7278935836974218e-02 6.7531913876311869e-02
      -3.4187257913028235e-02 2.8636009133991804e-02
      -6.7389593975063222e-02 -4.5945395623036400e-02
      2.3937109385578231e-02 -2.4017038130477574e-02
      1.6783467457824362e-02 -9.2760124753856504e-02
      2.9983679023981129e-02 3.2508652263518852e-02
      3.2882847068095862e-02 9.8233764318147055e-03
      5.0012618429017400e-02 9.6607805791827817e-02
      7.6553217547177560e-02 1.7826499462062214e-02
      -3.0931687940146651e-02 2.2304491255165686e-02
      1.9864492511615575e-01 -1.0030528820469607e-01
      -1.3572016089422908e-02 1.8484019174140073e-01
      -1.0401909508943182e-02 -7.4823273124438898e-03
      1.7967306486612964e-02 -3.7235217807044807e-02
      -1.8665318041183303e-02 -3.1250421184717700e-02
      -2.5280635794679415e-02 -1.2400703820225922e-01
      -4.5267100402857974e-02 -4.6590757400435633e-02
      4.8513534661490859e-02 -2.8420475785511067e-02
      -1.1783339090608297e-01 1.2280216036833272e-01
      6.1557545063343014e-04 4.5798669879512831e-02
      -1.4596313464741756e-01 9.2930200812048169e-02
      3.7453838489357211e-02 2.3160277356385726e-02
      3.3214591937876445e-02 3.9478373736284059e-02
      -1.3544950915350257e-02 -5.7218418405440015e-02
      -1.7614514938899546e-02 -5.3300182394075246e-02
      -6.8625531728735631e-03 8.0789239278979241e-02
      2.6853576029963654e-02 -1.2269736966386330e-02
      1.3395371009416608e-02 1.9502164710693212e-02
      -1.5484151740253244e-02 -7.7240074539773607e-02
      -6.7178515104143717e-03 4.4780313195815095e-02
      3.3716173565185331e-02 8.0265902515949367e-02
      1.4603811274545256e-01 1.1816109627842174e-02
      2.8031541941519428e-02 1.8625268148492032e-02
      -4.7572247781162667e-03 5.7517373442841684e-02
      1.1478155155910106e-02 2.0420336748475383e-02
      -5.0095529117485264e-02 -1.6631959983129021e-02
      9.8312140897494807e-02 6.7461071994140698e-02
      2.6703897118658376e-02 -2.2773843303044407e-02
      3.4638678154571237e-02 2.2679723333123167e-02
      -4.7463293814259414e-02 -1.5323990684801649e-02
      -1.9166245227397238e-02 5.7966187638240053e-02
      5.7251874596042217e-02 -4.9023901500573390e-02
      4.3877670667943583e-02 3.1841772579979416e-02
      7.0871871384305868e-02 6.4365446151523299e-03
      5.8058263112470664e-02 1.0687002870872316e-02
      -9.1739510120127724e-02 -2.2003460278497859e-02
      -9.1368114528690564e-03 2.0188832306326787e-02
      4.7608554765310986e-02 5.6668872346718963e-03
      -2.8305062564589773e-02 -9.2731766225282453e-03
      -6.0457565728467687e-02 1.0462988358465044e-02
      7.8155433619263893e-03 5.1981392703260325e-03
      -4.6604192691250546e-02 2.9720338072449545e-02
      7.6197131969968274e-02 -4.3888962772967763e-02
      1.9984188956259315e-02 -2.5596641448118979e-02
      -1.0528748111729231e-02 -7.7846825810534519e-04
      2.2161530858284362e-02 4.4629999939170752e-02
      2.2954159130336542e-02 -8.0921114751210128e-03
      2.8623908024903669e-03 -4.2857658841571354e-02
      -5.0634189527733742e-03 1.5103173733381298e-02
      1.0424459065514491e-01 3.4809652606312122e-02
      4.6710838619469348e-02 -2.9838587674915536e-02
      6.0077760317086566e-02 -7.9218765947251329e-02
      2.9151136673792152e-02 -4.4741682204293663e-02
      -1.0050925696075883e-02 -3.5067202273521232e-02
      -6.0289176131461224e-02 6.0694332440530879e-02
      -2.9455620596809468e-02 3.5621156273863308e-02
      -2.7375588475989310e-02 -6.4126457867111856e-03
      4.8489326626106354e-02 -3.0040578532866558e-03
      1.4885648915999477e-03 -7.1971817330961571e-02
      2.2539094418443508e-02 5.1702564746789248e-02
      1.2369810344502149e-02 1.6234075930934590e-02
      1.4834640228505516e-02 6.5958857769844781e-02
      5.6077142871395404e-02 6.9288531336429799e-03
      1.2262243501814490e-02 8.2682206173432370e-03
      1.5330001442559302e-01 -7.2146966747221666e-02
      4.4605107679688907e-03 1.4695794970144252e-01
      6.9463019519778041e-03 2.9323734995937892e-02
      1.0231565998557969e-03 -3.0743482867934848e-02
      -4.9559015545091881e-03 -3.7029236026371100e-02
      -2.4405953808242051e-02 -1.0948082559746489e-01
      -6.2687460219197161e-02 -3.3659208845450584e-03
      1.5010149231647226e-02 -2.5837613623242882e-03
      -8.1210383583131387e-02 6.2504141442883396e-02
      -2.7788484098277541e-02 3.3931137075798326e-02
      -1.1129478126183198e-01 1.1488428411292477e-01
      1.0002569389582003e-02 8.2766996941181342e-05
      4.6136357363291879e-02 -1.0993276266492184e-02
      2.9698118448727363e-02 -3.4645366388238050e-02
      -1.3329765069649965e-02 -2.2151291005493429e-02
      -1.7179346287186977e-02 -3.2736892170254655e-03
      -1.2853305268651510e-02 1.0652668990761274e-03
      -3.5844786287325549e-02 2.9692001324925710e-02
      -4.6064066859120853e-03 -1.1951387729787454e-02
      -8.8314884668690974e-02 5.3581661534634777e-02
      -2.7207911547019008e-02 -1.3868360112901332e-02
      3.5666363877943946e-02 1.4932259104122577e-02
      3.7714488156471673e-02 3.0169398511593500e-02
      4.1439440637765293e-03 7.6394890620272216e-02
      1.0209507634738268e-03 8.0284319082333869e-03
      1.9033222342147427e-02 -6.1193221621570593e-02
      6.4478138879397129e-02 2.8244115618892240e-02
      -3.6992127680388147e-03 -3.2321836488184820e-03
      2.9115052629866675e-02 -1.0456776121348706e-02
      -1.5751083496751746e-02 -1.1002152614584556e-02
      -4.0410566639567103e-02 -2.3582543740267733e-02
      -6.4230963386553049e-03 -1.9174383933959000e-02
      3.8330672470033023e-02 9.5288069184580569e-03
      3.9967790421785554e-02 1.4234304368631210e-02
      2.7257054531848669e-02 5.4429324470967044e-02
      -5.7452251435903219e-02 -4.1199792291430407e-02
      -3.6363615420379200e-03 -7.4934256268424839e-03
      3.1098557787122689e-02 6.6380374181468490e-03
      -4.5232467629891325e-02 6.5436651332159864e-04
      -1.4714929603971603e-02 2.5576063441170308e-02
      4.5028343318447954e-02 -1.4467457970690644e-02
      -2.3943551364574815e-02 4.1386941705053013e-02
      1.5098887185653342e-02 -8.1270648741627802e-02
      1.9407661061866061e-02 -2.9175781791458001e-02
      2.9380931853299597e-02 4.2646917921515259e-02
      -5.5951971026299556e-02 3.1970742739749168e-02
      -2.3459495939466585e-02 -1.1467418336595845e-02
      -3.7579872448421238e-02 1.3149074345725909e-05
      1.0035106790654183e-02 7.3715855032216388e-03
      3.9248719523661969e-02 1.2902338607983585e-02
      -2.7371334238600917e-02 3.2242111731761928e-03
      1.5296143969485440e-03 1.5611202149780680e-02
      -1.2218144870054499e-02 1.5787397228856671e-02
      -8.8975312396936609e-03 3.3252237411588561e-03
      -3.6579926845105068e-02 1.9974126883129495e-02
      4.9924289667330250e-02 2.8491855466832805e-02
      2.4638921753464164e-02 2.0497047286326207e-02
      3.6877796849713637e-04 1.9777169294298236e-02
      -2.4378056898144609e-02 -1.5152263881458509e-02
      -1.1337811248777275e-02 -1.3376300089581533e-03
      2.2448361698032663e-02 8.1741485352265584e-03
      -2.9531738872209160e-03 2.8580108083544654e-02
      -3.8244819463591338e-02 -4.4183648881970600e-02
      3.6595878418079514e-02 -2.7518445785415360e-02
      4.3598251602204374e-02 1.6715390545523996e-03
      -3.5261698921023855e-02 6.9334776729173264e-02
      3.4298750450243498e-02 1.3431151151382464e-02
      -2.6182998937488260e-02 6.9368726417532740e-03
      -2.5505732907530991e-03 -4.1594532968603222e-02
      -2.9772439904024627e-02 -4.6663027319774973e-02
      -3.4254919771931229e-02 5.6379680779421832e-04
      2.1503138433016239e-02 5.9331429804536179e-02
      -1.0384338900268053e-02 1.3230092672328098e-02
      -4.1389285663467487e-02 4.5679185466790471e-02
      -3.9363445877472390e-02 7.1246389727582349e-02
      -6.1469674407786277e-03 -6.9870713258849387e-02
      -2.8095022700737990e-03 -7.3670648980078820e-03
      8.0635380835063414e-02 -2.9173583844897162e-03
      -3.3430901522629751e-02 3.9993597762169311e-03
      -6.9766801401177775e-02 -2.4080866996130122e-02
      -6.8623596618698823e-02 4.8528182149995035e-03
      -1.6138348105891653e-02 1.8827918238836398e-02
      -2.4776343064834450e-02 2.5997569986774695e-02
      -3.9147936730241327e-02 7.1098108192689830e-02
      1.4328422508250165e-03 -4.9667089905555344e-02
      -3.5733034132059360e-02 -1.3939330652375865e-02
      4.1188773894142598e-02 -3.8283174035687845e-02
      -1.1318660159618649e-03 4.7726808948638483e-02
      -3.4125802564588061e-02 3.6258450495221722e-02
      1.0270837924355396e-02 -3.0632286486136761e-02
      -6.2213024550238942e-03 -3.9227457674817813e-03
      -1.2987510849791507e-02 -4.6590186537166567e-02
      4.2456559731569775e-02 -3.4534476857608097e-02
      -4.8975051421569396e-02 -5.1114619696557027e-02
      -5.9839124388256164e-02 -2.6358394928261706e-03
      -4.1661250573725300e-02 2.8573726614164140e-02
      1.4757124918783936e-02 -2.4406429684964769e-02
      2.3689994685159466e-02 -7.7798268912423882e-03
      -9.2366188148852307e-03 4.9500952373904082e-02
      -6.5186554606770754e-03 -4.6328663271639779e-02
      -1.3340025748647807e-02 3.1902127373732422e-02
      2.9047187901203791e-02 3.2993794719622972e-02
      -5.2047399327445898e-02 -2.3420536752406081e-02
      -4.6122558705570969e-03 7.8788783224817763e-03
      -2.6391730717412149e-02 -2.0100875256851322e-02
      -4.2364622984089467e-02 2.8674830245514735e-02
      2.6913090551701418e-02 -6.1800501802790481e-02
      1.9418969034912692e-02 -3.2186562540995070e-02
      3.5131473352473949e-02 8.9558936083730070e-02
      -7.9061537448743391e-02 3.4355069198633674e-03
      -5.6205972681091940e-02 1.3347100021318795e-02
      -4.0456327245779584e-02 4.3758525176313567e-02
      3.0885772139346131e-02 3.4653654875905444e-02
      -4.4199994209482833e-02 -6.4478840291329366e-03
      -2.4341563771196940e-02 1.9569044079542481e-02
      -2.4486350600080163e-02 -1.8915553252906819e-02
      -2.8635891345586164e-02 5.1432760473628745e-03
      -5.6564031020579567e-02 -1.0722990392531211e-02
      -4.4519876640472252e-02 -2.5813836842845436e-02
      2.6594012200047014e-02 5.5888443045166769e-02
      -4.3686121310648772e-02 -2.2362873377104263e-02
      1.5988710838244963e-02 1.0379211497915724e-02
      -1.9781479502160793e-02 -1.7663552720486746e-02
      -4.8339548824800051e-02 8.2897523096475741e-03
      6.2363072554218857e-02 9.2249540000401507e-03
      -3.2101724298451748e-02 5.1318222096013853e-02
      -5.8929493134387514e-02 -2.5007477936901387e-02
      1.7238408727963412e-02 1.7735959881589880e-02
      -6.2777360655916381e-02 2.2935103748702057e-02
      -1.8470434164573047e-02 -2.2648393032112187e-02
      7.5799538521481982e-02 -1.1333596783308714e-02
      -2.7677832959191729e-02 -1.7658130917264911e-02
      3.2324317460084614e-02 -3.6144146032900393e-03
      -4.5354271194406562e-02 -3.6401807483987469e-02
      -1.2800447671795737e-02 -1.4867748799347175e-02
      -1.0868313540596938e-02 6.0916304263617459e-02
      -4.2100611175757731e-03 5.1462144627787993e-03
      -8.5044151091518319e-02 1.0358243712629379e-01
      -1.0540764193783417e-02 4.9491100010512497e-02
      -1.7897499644122104e-02 -7.2153435698460791e-02
      -1.1503302768977965e-02 1.5951551860021587e-02
      2.3176682956515222e-02 3.6232420321684299e-03
      -3.0524969160576274e-02 2.0067058621056594e-02
      -3.0025700695152091e-02 3.5322041396426544e-03
      -1.4407808170127458e-02 -1.2880235454435285e-02
      1.3929841509825920e-03 2.1369395097047900e-02
      -1.2405419969856940e-02 -1.8984747546896091e-02
      1.5301515018449079e-02 -9.1363772434725696e-03
      -7.3455837142018176e-03 -1.2595071300376837e-02
      -1.4314762301080416e-02 -4.7479273323759938e-02
      -1.4592260388266684e-02 -2.7119855767657259e-02
      -1.2855135630096369e-02 2.9614911692115272e-02
      6.8031466020161699e-03 5.7651063846822954e-02
      -1.6473924746164999e-02 -2.1470059148835180e-02
      -1.4188206979205687e-02 -1.4868369901779276e-02
      5.5352337877863471e-03 -3.9299243535696630e-02
      5.8862126367549929e-02 -9.3462374996182585e-03
      -3.4615087104778612e-02 -4.2469200081695080e-02
      -4.6979227007712787e-02 -8.5233758671025440e-03
      3.4434626641214446e-02 -2.0177381940416693e-03
      3.0883508315540766e-03 7.6315924465595736e-03
      4.2721961137043810e-02 -7.1614679869022807e-03
      -1.3522875099744366e-02 -7.5498721871868191e-05
      -2.4153167548605602e-02 -1.8848276835622881e-02
      -2.2678235439490543e-02 1.0815254269456695e-02
      -7.9406124216109524e-03 2.1334478757915457e-02
      -1.3898387206628745e-02 -9.9345850025140178e-03
      1.7544628370348453e-02 4.2307873056266435e-03
      -3.8649928065799304e-02 4.0843563683653069e-03
      7.4078375107663802e-03 2.3565147059610117e-02
      4.9739359522771594e-02 5.3009533504399893e-03
      3.2915113109288413e-03 -1.4976336319445092e-02
      2.6191199036751957e-02 4.5024840041180056e-02
      -1.2442493439030861e-02 7.9887419029141035e-03
      -2.3365307557313312e-02 2.9937881676730366e-02
      -1.0848395244558356e-02 1.3272965131680631e-02
      -1.3915563863239808e-02 2.4507611400762776e-02
      -6.6838273028789093e-03 5.8201301817627227e-03
      -3.4584449645251161e-02 -1.7777707526599535e-02
      -9.9885269819360700e-03 -3.7322143437993054e-02
      2.9355683394458831e-02 1.0338850870385078e-02
      -2.2825155111177012e-02 -2.3468617325062814e-02
      -5.9250585754026253e-02 2.6863875621833320e-02
      -1.7189214744221668e-02 -1.9774974322563266e-03
      -4.1797673240059140e-02 -1.8365238328767033e-02
      3.3340704145949286e-02 1.2177341050904481e-03
      -1.0645794081615267e-02 -3.1325773404676190e-02
      9.6095373263128531e-03 2.1669285006017551e-02
      3.9983919762377924e-02 -3.6064918806968864e-03
      -1.6271830281536941e-02 4.7386903863995378e-04
      1.5631389285481456e-03 -1.1546626871953286e-02
      -1.4804482719116541e-03 1.7415080690265670e-02
      -2.7889252377992384e-02 8.1616191262017974e-03
      2.7232459219262407e-02 -2.4759586177893183e-02
      3.7505990584614304e-02 1.3398587455872364e-02
      1.8442072530506209e-02 -4.8202532856404107e-02
      2.4424982405902004e-02 3.1778211633775304e-02
      -3.3055971119882045e-02 -1.4392625368030619e-02
      -3.7021630712608784e-02 -9.1719180789277092e-03
      -2.6216528673685232e-02 3.2463654153347993e-03
      -1.0983693096139929e-02 2.2076568165357097e-02
      -3.6046828644504064e-02 4.2374444458753026e-02
      -3.0867876544376058e-03 3.2876515813363427e-02
      -1.3588415967171943e-02 -3.9357665817999425e-02
      1.9443370421935859e-02 3.0897150457208131e-02
      -3.0925738559037408e-02 -2.3248763661792987e-03
      7.9288158912008133e-04 -2.1221348984840700e-02
      3.3151166858971945e-02 -3.5066388194477861e-02
      3.3490344831160195e-02 1.4715858296409614e-02
      6.8514574721159748e-03 1.0103007209053187e-02
      -3.4921294598310674e-03 3.7264657826805345e-03
      -6.2240478142097169e-02 1.6525704056511006e-02
      -1.6529524385716133e-02 4.4964327524975721e-02
      -6.3671502792195911e-02 5.8868735753632107e-02
      1.6142614374305968e-02 2.7076900267875979e-02
      1.2382434364080387e-02 -1.0173309709742838e-02
      -3.7870672981165660e-03 -3.3048365759159426e-02
      -2.8646713236961073e-02 -7.5595742086348736e-03
      2.4363678283980672e-02 1.1247425292627601e-02
      2.5227377646108183e-02 5.7290099140783354e-02
      -2.6051693109440943e-03 -4.8640229627288072e-03
      2.2358636800325571e-02 3.8230963844343373e-02
      2.9173861394183077e-02 -3.0070707661597942e-02
      -6.8477615975145005e-03 -7.0570908763816264e-03
      1.3504161333663675e-03 1.6006807697313104e-02
      5.2589879831907672e-03 1.9576565609487690e-02
      2.5724880278321826e-02 3.3284732610557304e-02
      2.8212685388703019e-02 2.0187245125521353e-02
      2.8747991203073010e-02 -1.1687008277410744e-03
      2.0457357526539974e-02 -3.8235905557633149e-02
      1.3104180744884236e-02 1.5624429948783512e-02
      4.0366970321225014e-03 -2.1938503683140154e-03
      6.3501923690855083e-02 -1.2515863526325487e-02
      8.3571231380455066e-03 -2.2099549509034293e-02
      1.0543403496034364e-02 -3.5119820245485663e-02
      1.1364518215371497e-02 1.4514586407750627e-03
      -2.8367526288447041e-02 -3.7866756062472626e-02
      -1.7032931647188901e-02 8.9056993754214487e-03
      9.1020689119198674e-03 -3.3764302094752466e-02
      -2.6851820157419480e-03 1.3818072387563045e-03
      -1.1524617265893492e-02 -3.6161443666618172e-02
      4.8386430337765726e-02 1.3798676525741727e-02
      -4.2447650541636218e-02 7.1822861896531183e-03
      -8.3751046884564702e-03 6.1712427449844209e-03
      -2.3455534609781305e-02 -8.3791748054294866e-03
      6.7791721082096929e-03 2.0553995819763932e-02
      -1.7255313698880805e-02 -2.1332992957110151e-03
      3.2364927111794478e-02 2.7314244414459666e-02
      6.6311622044997159e-02 2.9395897357761481e-02
      -1.7964456946774884e-02 2.0837818717199839e-02
      9.9255080593256897e-03 -8.4846724081172765e-03
      1.4384397700737229e-02 8.8704386059579830e-03
      -7.3687567255370911e-03 1.6627024312578557e-02
      -4.7687478604470706e-03 -2.4985518154277995e-02
      2.4044018036704595e-02 -3.8315447070471631e-02
      7.7037315778105096e-03 -9.9845567947236258e-03
      2.3195061577339953e-02 2.1872617258338462e-02
      2.1802321770956777e-02 3.7784571883557339e-04
      -1.1526485946952516e-02 2.5120712168788195e-02
      -2.4931579765792706e-02 2.5000944608721966e-02
      -3.6978172310799182e-02 -3.9727387331948485e-02
      1.7501176116495567e-02 5.8930156559025150e-02
      -4.5231098105566079e-03 1.6342935785056432e-02
      4.5731014219120784e-02 4.8383689640139206e-02
      3.6734318358186374e-03 1.3765970233920711e-03
      1.1421254082470461e-02 -6.8833876621986721e-03
      -9.4748808893427849e-03 -1.2009689057763217e-03
      3.2791353276625267e-02 2.1924245897076197e-02
      1.0414089004714404e-02 -3.1839611709214302e-02
      -4.4964717269703414e-02 1.1644000822577208e-02
      -7.6368155024712867e-03 2.4640955129339372e-02
      5.2947303135583552e-02 -8.1212668126093429e-02
      4.8553367657579193e-02 -3.2428207580085536e-02
      -4.6435828928080826e-02 2.9039648931888491e-02
      -2.2822557959531010e-02 -5.4869994459362220e-02
      -9.8560196733710276e-02 -5.0964367738395742e-03
      -4.4967648260806382e-02 3.9469586191915998e-02
      -6.5452035251864771e-02 -3.1193088440991341e-02
      3.9885249767123786e-02 1.8675286364637139e-02
      7.9250922470055375e-03 3.2517185467419947e-02
      1.1119748818372974e-02 -9.3210074603898626e-03
      -4.2886744485588794e-03 -2.6481175713824721e-02
      -1.7811418685762033e-02 8.9242310773324542e-03
      2.1058135206830147e-03 9.1610349345392181e-02
      -1.7270008108403935e-02 3.9882646291106490e-03
      4.8233410133569722e-02 5.0572530698985575e-02
      3.8958723352278811e-02 -8.1849016136638073e-02
      4.4526259786272929e-03 -1.3757547281077042e-02
      -1.9194440757986344e-02 1.4474106924492086e-02
      -1.1828926249447988e-02 2.6590745469725924e-02
      2.7388823783148809e-02 -3.1864845170589563e-03
      2.8833514434632751e-02 6.3486670506649329e-02
      1.1194398324880251e-02 -4.9598755943205716e-02
      -2.1145891129363926e-02 -4.1955985505738390e-02
      6.3485974418064266e-03 7.0294353301834740e-03
      3.1312174996413811e-02 -3.7050764870240056e-03
      8.0605280537562482e-02 -1.9061657970915198e-02
      6.1340936740068068e-02 7.8792222175131429e-03
      6.6311392271070253e-03 2.3164769560227682e-02
      -4.2965881235135971e-02 2.9017579775046827e-02
      6.1709507234975437e-03 -7.8882148091678553e-02
      -1.1202919760688750e-02 -1.6388741659932989e-02
      4.2913642198990069e-02 -6.2015620216101519e-02
      -2.0197545335301905e-02 3.8717955109035501e-02
      6.2422169588736351e-03 -1.1555359454148536e-02
      1.6190543681337247e-03 -2.2962880937710413e-03
      -8.4314396032472969e-02 2.0317351230949365e-02
      -6.6536479881787722e-02 5.6902332149955735e-02
      -2.7502336348783751e-02 3.7915377157956932e-02
      3.9928716431367819e-03 3.3035025741212080e-02
      -8.3328113888731358e-03 -1.6777249539234363e-02
      3.7035225503716254e-02 1.1387533520171533e-02
      1.1481767884585439e-01 4.7708930877295226e-02
      -2.6073554332461551e-03 6.0595727981953972e-02
      6.6336373944101672e-03 2.5974621873397000e-02
      2.3713424247995573e-03 1.5883496604170749e-02
      -2.0951005071991130e-02 -4.7928791382560176e-03
      -4.3644936710789369e-03 -1.0127295093601499e-01
      -6.6119345073108681e-04 -5.3300954248105721e-02
      2.2654766671804594e-02 -3.4676015479208296e-02
      2.1774147287754252e-02 7.0620111620446624e-02
      4.7357161018574172e-02 -1.1889986623826595e-02
      5.9733414214027149e-03 4.2389256156667762e-02
      -5.2923361298196435e-02 5.2298977604475924e-02
      -3.5044451421530225e-02 -3.5457338692068532e-02
      1.1032102526006020e-02 9.6072862947399029e-02
      -2.6583497954316564e-02 4.7408389088824048e-02
      1.6726052095225836e-02 3.0904044656343214e-02
      3.8520507450722642e-02 -2.7588336003444871e-02
      -8.2879689455149751e-03 -6.5330836603790729e-02
      1.2778902227922044e-02 -1.9081681170691651e-02
      -8.7751351847303160e-03 2.7231662287401145e-02
      -5.2625247810142023e-03 -6.2814773017536102e-02
      -1.8293622064114026e-02 1.1393968598632724e-02
      2.8224587020737258e-02 -3.4538085151158610e-02
      2.1867215977124908e-02 -1.0234512317135992e-02
      6.2881162697778187e-02 -8.8447134909280037e-03
      -4.4963742032413934e-02 5.3367408756079787e-02
      7.0901960278329937e-03 -1.8539852867184166e-03
      -7.1108952969866537e-02 5.3012803315578588e-02
      2.1410760883893865e-02 5.1803885757562479e-02
      -1.6053056288368211e-02 4.4928627022618753e-02
      7.5500053874085612e-03 5.5029753580747770e-02
      -1.9793158854693153e-04 9.1314171625225934e-04
      3.3615519151673288e-02 -2.6266155234205793e-02
      3.6569465408535375e-02 -8.2351721719710717e-03
      6.3573895186172860e-02 3.7927272752241642e-02
      1.5971004029532769e-02 2.9707500242806491e-02
      -1.7990199862649488e-02 1.7420647622009109e-03
      2.0130819113005644e-02 1.1548150337533092e-02
      1.4833661237295235e-02 3.7778538249584556e-03
      2.7079642499254455e-02 -1.1194936813716591e-02
      1.0642017466680257e-02 2.0391163621658666e-02
      -5.8891284932210356e-03 1.5686262772551432e-02
      -4.2042988587841796e-03 8.4007174921434224e-02
      2.3958402262040646e-02 3.1517908433908837e-02
      3.5904698956294198e-03 -2.3793661766526850e-02
      3.7706028960912942e-02 -3.0044642294646703e-02
      -3.7869555230488532e-03 3.1762923763354614e-02
      -2.3067526870080714e-02 4.0532084143103754e-02
      4.9954688834942293e-02 2.2304838704229647e-02
      -4.3662254419860463e-03 -3.4781080952458833e-02
      -9.4440059048897813e-03 -5.2037585682843619e-02
      -5.6029046561367965e-03 -1.3522169403122350e-02
      -4.3438161822327105e-02 -5.3814920247390853e-02
      8.0392312400866389e-03 2.9063664059111399e-02
      3.4990671508209024e-02 -2.0468133058678697e-02
      -2.1658851257946019e-02 6.4082012641142605e-03
      2.0212647376289341e-03 -1.5238236554018701e-02
      3.3004607986582710e-02 2.0518211712813171e-02
      2.1559796753943617e-03 -1.6712169940152594e-02
      -1.9798482177714894e-02 8.2806710952342839e-03
      -1.5697217824890966e-03 -1.8498526824448563e-02
      8.5152898131470103e-02 1.5310724834319738e-02
      -3.9508038994809074e-03 3.4320717243040727e-02
      3.3249583087997449e-02 -2.9907925758564415e-03
      5.4236886545247345e-02 4.2558632549783239e-02
      -2.9078591531247040e-02 2.2111252638651439e-02
      -2.2834981421878706e-02 2.7382854132964728e-02
      7.4251904151560614e-03 1.3802728744425189e-03
      -3.2038258355499907e-02 6.2235496237930308e-05
      3.6154921112557414e-02 -5.9511392757145348e-03
      1.6773740102638664e-02 -3.5837400401478162e-02
      1.0556861184785490e-02 -1.8550989166670022e-02
      5.3072411304695907e-02 1.0763608102994515e-02
      -2.4909371492155542e-02 4.9141458879439368e-02
      4.9729652081165684e-03 7.1949378216416473e-03
      -1.5273917207838503e-03 4.2767009925631476e-02
      -4.3375825866151727e-02 -7.2908645945689285e-02
      7.1553074027526434e-03 3.9384090484786534e-02
      -1.4250714087806361e-02 2.3068502036455809e-03
      5.7653529612967991e-02 4.0278165788860877e-02
      -1.4253583652973171e-02 -1.1045630767009250e-02
      -6.1924072507576963e-03 -2.2874212696496888e-03
      -1.7896586281077993e-02 -3.7794298793105952e-03
      -2.8769668961138141e-03 1.8157180530671762e-02
      -8.9036918870931299e-03 -1.0630610060647893e-02
      -2.5476069579382053e-02 -2.3898712431439942e-02
      4.5072025731951432e-02 -6.8177654024893619e-02
      -4.1544636671652473e-02 7.1250732529005600e-02
      4.3638908525592400e-02 -1.1504473416483819e-03
      3.0407931252546150e-02 7.4913228050917258e-03
      1.5925250002983206e-02 -2.2200448263905135e-02
      6.9569417040107551e-02 1.6750101276793643e-02
      8.1411463806893902e-02 3.6152384107979420e-02
      7.3602173949082542e-02 3.1810772636689744e-02
      -1.7757677386578512e-02 1.9071288519966600e-02
      -4.6646762395640591e-02 -1.5538201317645932e-02
      2.3515600890374626e-02 9.0765314241763768e-03
      -1.6652426733450919e-02 7.0875778788225385e-03
      6.7770361319540090e-02 4.4305342784648573e-02
      -8.5341243406424974e-03 -5.6855196537954115e-02
      -2.7831892097033737e-03 2.6438572573644795e-02
      -4.6084691243008603e-02 -2.1308346478351056e-02
      1.1539253989364250e-02 9.7137198967413560e-02
      6.5524474720023887e-02 -3.2681271758366652e-02
      1.0046432165255772e-02 2.5035226342024607e-03
      2.7100382850536352e-02 1.3547372058456682e-02
      9.0560607047993275e-04 9.3302562184661454e-04
      -1.7096631996550798e-02 -3.8995125669177774e-02
      -1.2691893655180676e-02 2.4836444073137932e-02
      4.0439952740479554e-02 -3.0106681743824306e-03
      -1.0031570326765835e-02 1.5281532716248039e-02
      -2.8353298075431160e-02 1.4400960149496682e-02
      -2.3008755906498771e-02 1.3385090204110141e-02
      -2.1189156280692199e-02 -2.1045354144461088e-02
      3.3894694953610062e-02 -7.7533277953212645e-03
      4.1563140315755864e-02 -4.7711174254847222e-02
      -8.2457617331012145e-02 -2.2737625654042457e-02
      5.0904099141330962e-02 6.8392239645960001e-02
      3.2640438027800200e-02 6.2317533925778393e-02
      3.6627070966455774e-02 -5.4019125603888433e-02
      -3.8535994064710193e-02 -3.9776717603487747e-03
      6.7306872321832023e-02 2.9017193115360849e-02
      1.0056704673660251e-01 -6.8671640488924365e-02
      3.3511351024335785e-02 -9.0656356396199331e-02
      6.8189681993560736e-02 -7.1369656943184812e-02
      5.9567453444733159e-02 -3.4967024313988397e-02
      1.9880403303361823e-02 6.0459583434643249e-02
      -5.6551976423852471e-02 -1.9297198806475332e-02
      -9.2290583710905733e-02 -3.5369387892139531e-02
      1.1305605082115925e-02 -4.8521305862763625e-02
      9.2634100575247479e-04 -2.7131847184244585e-02
      4.5687866526513347e-02 1.7475555434296425e-02
      -6.5556778749022446e-03 -2.7593783315269043e-03
      3.0314446690789171e-02 8.3671688898511148e-02
      7.6354584524172056e-02 5.4089481152069852e-02
      -3.3842644174666751e-02 3.0515284874501569e-02
      9.1647776838027412e-02 -1.2129646382509503e-01
      -2.7135030883385335e-02 6.0519696927270210e-02
      -1.1718879203653502e-02 9.3275653624041600e-03
      4.8372635098311162e-02 -3.1318736927213008e-02
      -2.1632412086226717e-02 -2.1544929078008558e-03
      -6.2322371678989142e-03 -9.3078360726376347e-02
      -9.8306677818595870e-03 2.3931828301027016e-03
      3.9179495077267333e-02 -4.8732928043893231e-02
      -7.3334773164194608e-02 4.7171223195967192e-02
      -4.3559425665109857e-04 3.6470406472597083e-02
      -6.7402690750676494e-02 3.1734641422648639e-02
      1.5066934413305883e-02 4.3498636581171965e-02
      8.8428141869667867e-03 2.5975015204199980e-02
      -2.0473493198104674e-02 -1.2390848668209357e-02
      1.3056017921912140e-02 -1.3536039633310635e-02
      -3.3209589174263823e-02 1.9186077764095293e-02
      4.9717142127264746e-02 -1.5404083050858051e-02
      -4.2913611605681435e-03 -1.4422413220749976e-02
      1.6100688002856467e-02 -2.1234936310512136e-02
      3.0468963023719667e-02 1.5662782171759121e-02
      4.6401712681855369e-02 8.1938559598635514e-03
      5.4896073447839387e-02 4.2038169805881619e-02
      9.6250136307967810e-05 1.6241587570414687e-03
      -3.5437809404181862e-02 -1.0474996883779080e-02
      2.6250124021022243e-02 5.3440096961652785e-03
      2.5533155899994650e-02 7.2644468004164787e-03
      1.2759371050327584e-02 1.0478480831056788e-02
      1.4741452037408086e-03 -4.1631728215188367e-02
      1.7906130751690584e-02 2.1456781128593836e-03
      -1.2120246338499653e-02 -1.5894027548988741e-03
      8.6950669673704808e-04 6.0027988960413559e-02
      6.2508299896023328e-02 1.2854069788268134e-02
      -1.7053173969143968e-02 1.9814480841938806e-02
      3.2908248189559834e-02 1.9210553418504736e-02
      -1.0471010137197340e-02 -6.9578895030593686e-03
      -3.8484910540263095e-02 -4.4903683187614687e-02
      -2.5509052815700810e-02 4.1907831572904531e-04
      -1.5458290342639690e-02 2.9737160553822530e-03
      -9.5435373013474708e-03 7.8271040246174117e-04
      -9.8175846149393519e-03 -1.4255018278245969e-02
      1.8855577224191056e-02 9.6048622350183716e-03
      2.9844212270250432e-02 -2.1710359938763170e-02
      3.1719525571061502e-02 -1.9296909633161604e-02
      5.0119096928546811e-02 -1.8327178826387215e-02
      -2.3924308103149328e-02 -1.3807238206521636e-02
      2.6398014866183206e-02 2.8830735781888724e-02
      3.4644149686148970e-02 2.9188475353042413e-02
      2.7596444170730764e-02 -2.9399965405117655e-02
      -2.4271766922213597e-02 7.0294521463953961e-03
      3.8976750661784139e-02 1.4301805909987015e-02
      4.5568788389652233e-02 -2.2748264219048200e-02
      2.3747253012207530e-03 -2.1884609040000166e-02
      3.4426964524195983e-02 -1.9758080498095014e-02
      3.3327745070990934e-02 -2.6185066190687181e-02
      -4.0007808359764079e-02 5.1056473339759038e-02
      -2.2249389463286133e-02 -8.2028573144104049e-03
      -5.7345461241990331e-02 -9.3020274530848275e-03
      -8.0104764387535911e-04 -7.2725655616709050e-03
      5.7755992922529980e-03 -3.2748827676998722e-03
      3.4887269272362756e-02 5.3962424124219539e-02
      -1.4386528485122644e-02 1.9150037970465057e-02
      1.7617907556535927e-02 3.2635948821666615e-02
      3.0311337161860654e-02 7.6311252975813051e-02
      -1.2827323618608600e-02 4.4343511399571834e-03
      2.1854447666283468e-02 -1.0480926518400505e-01
      -1.3299088915722124e-02 3.0402703250104735e-02
      -9.2004989549527971e-03 1.9981978926218530e-02
      1.2638370276195594e-02 -9.5094101376448602e-03
      -4.9229860198919057e-03 2.6016789576020553e-02
      -7.4400736676556792e-03 -5.6144732302737893e-02
      -3.3277124252851065e-02 1.1910549250640301e-02
      1.6742503647201801e-02 -9.9618575534232111e-03
      -3.6703725025703612e-02 1.0926080722163450e-02
      -2.1014668168718564e-02 1.6051008084243281e-02
      -1.9912320793583849e-02 4.7991634459258858e-02
      1.3054255898406678e-02 2.3427302685076656e-02
      1.2875731005812376e-02 -2.8465707628661695e-02
      -1.1271407468346425e-02 2.3212885763629870e-02
      3.0004792027701947e-02 -1.4458982221389171e-02
      -2.7593013846089174e-02 -2.8886505734226978e-02
      2.9122685364827750e-02 -5.0996596551854116e-02
      -8.5304856741826404e-02 2.9066599525878443e-02
      1.0879168107217695e-02 3.6076036779226946e-02
      -3.3401195742758918e-02 2.8452140983942692e-02
      1.0409064852278146e-02 -3.8757092040232678e-02
      -4.1702852618292867e-02 1.5884591709955393e-02
      2.0782286300904695e-03 2.4937802367590637e-02
      -1.5094333082771456e-02 -5.9633551783234181e-04
      1.9201365415625470e-02 -1.9029455057979174e-02
      5.8580881590564036e-02 -1.2964146743666983e-02
      2.7744515906360501e-02 2.5330471621277878e-03
      -9.6389696743483643e-03 3.0593561787333159e-02
      -2.8411379670019561e-02 -8.6861709904834227e-03
      -6.0001240666742528e-03 5.2985784609728519e-03
      -1.5158984030976390e-02 4.7317219812285663e-02
      5.1943795806989402e-04 -4.6152335825880159e-03
      -2.3927623260743868e-03 1.2273139382861252e-02
      -1.7970809272186739e-02 4.1056920964268787e-02
      -5.9418004170368924e-02 2.0658392439548270e-02
      5.1312373029050520e-03 -8.6881697822682215e-03
      1.0559328025718665e-02 -3.5219981389057582e-02
      1.5075403012100688e-02 7.5695628294519058e-03
      1.6225926972874265e-02 2.1469813666702156e-02
      5.7101555645526596e-03 1.4002526973791030e-02
      3.1352440514539809e-02 1.9169481316677214e-02
      2.4814687728187488e-02 -1.2908146734187454e-02
      -5.3236112908928775e-02 -3.0757077965902650e-02
      2.4096195393514052e-02 -7.7480114828808637e-03
      -3.7024382391475978e-02 -1.4194705224193976e-02
      -4.5189184127441169e-03 2.3185541617450605e-02
      -3.6252148306591381e-03 1.2663851382218734e-02
      5.2694372042941609e-04 -9.8078437170028288e-03
      1.0617139981266307e-02 -6.0050845836904345e-03
      2.6766555537307739e-03 -3.3802512702172945e-02
      2.0334303369302746e-04 -8.0847687154035370e-04
      -3.5821333883717540e-02 5.6978921060208319e-02
      3.7189246468391529e-02 3.1080073839296739e-03
      2.4118468020063715e-02 1.2439022753974616e-03
      3.0321992838848948e-02 8.0667985301800249e-03
      3.2839936799376503e-02 -2.6168887882432712e-02
      4.3973681874213298e-03 3.8202179654130509e-02
      -4.7898705969758343e-02 1.4256555056024396e-02
      -3.9798447050015520e-02 4.3622536421792084e-02
      -3.2050397551524534e-03 -1.3146976536665266e-02
      2.6646266314176987e-03 3.1735092562984934e-03
      -6.7224047339470372e-03 2.9855951235880980e-02
      -6.3177014055573475e-03 -1.1498206237261324e-02
      5.3391242202983403e-04 6.9983413340974649e-03
      -1.0664508173429066e-02 -5.8759782715397512e-03
      -5.0946817138848348e-02 4.0281256488304239e-02
      1.1477533791967463e-03 -1.2997557595815709e-02
      1.7985217030251298e-03 3.4461543973077692e-02
      -2.2466276025117304e-02 1.8723169947080552e-03
      1.4808947680857609e-02 1.8529489579711417e-02
      -6.6519692221157073e-04 9.0076919574714129e-03
      2.7431670745180478e-02 1.1693256176145661e-02
      1.1419863431671576e-02 -5.3525836405911360e-02
      -4.0528654411528198e-02 3.6877930303539079e-02
      2.3113116819982175e-02 -1.0563193437956035e-03
      -1.9872002839434372e-02 -1.4074675013402120e-02
      -4.6277981132234559e-02 -1.2144996165680409e-02
      3.5022656480559473e-02 4.4048940982620806e-02
      1.8677166832526289e-02 -1.7052275725582124e-02
      -2.0944957818323104e-02 1.3722783077090525e-02
      -2.0318852239704890e-02 -2.0739411600471609e-02
      -3.2526103647735095e-02 1.8344533513174523e-02
      2.9318233819220840e-02 6.0433141706577376e-02
      2.5375830819939389e-02 5.1578003287215235e-02
      3.9737295191602795e-02 -5.2754282651727984e-02
      -7.8391956920744590e-02 2.0116371139820640e-03
      -1.6600008433966602e-02 6.6136580857308470e-04
      -1.6422870299765503e-02 -8.6663745181630534e-03
      -4.2916741816289277e-03 -2.4038709561916009e-02
      6.5586406058324942e-02 1.0023804963538663e-02
      2.3732702912412890e-02 -1.9293303060740155e-03
      -4.1361440765175082e-02 -7.0831551369032169e-03
      -4.1011996983255264e-02 -2.7948157814955018e-02
      1.4991740263622429e-03 -2.4433651686096274e-02
      -1.3213746542118968e-02 5.6257495594794697e-02
      -3.9304895931020316e-02 2.6701086828160948e-02
      -1.5629540257478886e-02 -3.9565424079830228e-02
      -4.7489408733910977e-02 3.1726025744671663e-02
      -5.3517712509340648e-02 8.3277371245853056e-03
      5.5885711707435705e-02 -1.8852369550700614e-02
      -4.6729701544772012e-03 4.7992217260194418e-03
      2.6415100279518424e-03 1.0705787935913451e-02
      -9.1722908201363248e-03 1.9778308755011086e-02
      8.5191465197977882e-03 2.0505066989583921e-02
      -4.0385437841813442e-02 2.9029423226635022e-03
      -7.2496103697376555e-03 -2.9454900534704499e-02
      -7.1764701672695913e-02 -3.2668201692606751e-02
      3.8132274858074404e-02 -4.3860149011369032e-02
      -5.2728003805933087e-02 -1.0139169804143312e-03
      -3.1682267774396318e-02 -5.3806871378728523e-03
      -4.2749823445590494e-02 3.9397381034515969e-02
      4.5376357836649974e-03 -2.5699308091528011e-02
      4.9846605387186833e-02 2.1599125522737506e-02
      -4.7112656239003736e-02 -4.5404227569420523e-02
      4.9507318181892336e-02 -3.0211718625395190e-03
      -1.0714062511675245e-02 5.5475809128143629e-02
      2.8140723535825581e-03 6.8262164524138342e-03
      4.2889741131918544e-03 -1.8914564964157079e-02
      7.7418678614120481e-02 -1.4255554441827646e-02
      1.3211175156900614e-02 -2.2506834062996871e-02
      -3.2278621786813420e-02 2.1001932079608574e-02
      -4.2878190567530665e-02 -2.1447570019993326e-02
      -2.3387724450178893e-02 5.1929564058458853e-02
      -1.5056554434516580e-02 -2.4113058512976071e-02
      3.5849368987888930e-02 -1.1103710784078848e-02
      2.0558509934627892e-03 6.8205112183662320e-02
      -2.3980974754391388e-02 -6.7557774833401493e-03
      -2.3571785729059054e-02 2.4302965993776234e-02
      -2.9808934213634120e-02 -7.8673944732797971e-03
      -6.4907272147680467e-02 2.8004883833857092e-02
      7.0523059573775783e-03 -4.2629227917414018e-02
      1.2230884057564090e-02 1.8843445762196643e-02
      1.3842883674991709e-03 1.2459388326140862e-03
      2.5253757238430152e-02 2.4992514750706653e-02
      5.0241765293834714e-02 -8.2937605513797082e-03
      4.0044806861072813e-02 -1.5317944453970110e-02
      1.1654884825677893e-02 -3.2774659674310071e-02
      -2.2833536172759718e-02 7.2122290992648747e-02
      2.0289548464479595e-02 -3.4142166032336066e-02
      -2.2396135798830749e-02 -2.8396794064136029e-02
      -4.6921900386894470e-02 3.5381832184370422e-03
      1.5083759177483598e-02 1.4847551744805435e-02
      2.4323341021943632e-03 1.7194673156316346e-02
      -2.8870164607981447e-02 -8.8583878070938264e-03
      -1.5669746418783277e-02 -3.8654378012502925e-02
      -1.8806258890958598e-02 -1.8760745425687030e-02
      -8.7321331580521733e-03 2.5190216890157057e-02
      4.1376370154947752e-02 7.4074028555698333e-03
      1.1168070873807407e-02 -3.8909144453405813e-02
      -6.2830289918176074e-02 -2.8848590211923316e-02
      -6.7096650430943840e-03 -3.1719576021832355e-02
      -2.9376975578180926e-02 -2.3963629709531632e-02
      -2.5846577597026846e-03 2.4559929109770704e-02
      1.1711874191415316e-02 6.0470515973434346e-04
      7.7344894440944565e-04 -1.3560562212460025e-02
      -8.1597428846876298e-03 -2.7397617147144622e-02
      -2.3548297108875139e-03 -1.6891718204471200e-02
      -1.1991535387060609e-02 -4.6446683857605787e-02
      -2.3143678068623403e-02 2.4387884904306999e-02
      4.3714510544998874e-03 2.5672653984422082e-02
      -4.3805703897330387e-03 -5.2167848282133420e-03
      -4.6828024650903896e-03 2.1812016317929273e-02
      -3.0972603672542551e-02 -1.5758273658120093e-02
      3.1018562206285547e-02 -2.3157768623020387e-02
      3.9565842111293562e-03 -7.8811387486213743e-03
      -1.1833485149854816e-02 1.1197171255003271e-02
      5.6921804091858742e-03 -1.2999470704208895e-02
      6.2993108856904591e-03 -2.1548566242871867e-02
      -2.3386735868399077e-02 1.7482868744547908e-02
      1.1678772296586298e-02 7.9945574213018452e-03
      -4.3086452863544573e-03 1.0673052335223492e-02
      3.7680837173739767e-02 -3.1036672755362250e-02
      1.5584688434927007e-02 2.5313132213391307e-02
      -8.2784758368361737e-03 1.2841225778384658e-02
      -3.7273578404760414e-02 3.1390692649676748e-02
      -6.6495491715093846e-04 2.2035376953132461e-02
      2.4463425735440306e-02 -7.7210013569614557e-04
      -2.0482452036746746e-02 4.0034943013445871e-03
      9.6284624824294739e-03 -1.0203674467301681e-02
      -1.4197265526440678e-02 -1.5485250445565117e-02
      2.8082232521341309e-02 1.7563464194756479e-02
      -2.8586568965770220e-03 5.5525437024774972e-03
      -1.6190769796398680e-02 -1.8435373519008903e-02
      -4.9076795386725951e-03 7.4356654864646743e-03
      -5.6470428891975843e-02 -1.0338579781936787e-02
      -1.8235964785019970e-02 -1.4936521262547506e-02
      4.6974363011086295e-03 4.5702391181973679e-03
      7.0841943176238580e-03 4.3661489990997997e-03
      2.4070423840474333e-02 -1.0495269931516005e-03
      -7.9417375211842320e-03 1.1936378308762565e-02
      1.0634857255075666e-02 1.6342040043104068e-02
      -7.8951552558202808e-03 2.8998312492638238e-02
      -2.0734114670286338e-02 -1.4617343641989388e-02
      -1.0012579621774645e-02 -7.8716795341253684e-03
      3.3517530784363168e-02 -1.8686327178410289e-02
      -8.2669949723732684e-03 -1.5222683573290792e-02
      1.3895996121138871e-02 3.5065475951348554e-02
      4.0376680027611703e-05 3.4480504081532658e-03
      1.2898184839912032e-02 1.3155766863488345e-03
      2.4751744229698893e-03 1.3290240733167959e-02
      1.4102187912437293e-02 -2.7398122105477502e-02
      -4.7237683677862380e-02 5.0921522611349801e-02
      1.8958803018701915e-02 -1.2532668105276663e-02
      -3.0984732419465897e-02 -1.6881647496654665e-02
      -1.9463607559621690e-02 2.3086671943597678e-03
      6.2802465041281695e-03 9.8167635907525641e-03
      -1.3944186580519102e-02 -2.0267852713825715e-03
      -1.0129883034782633e-02 -5.4077311450066876e-02
      2.7196297299144589e-02 1.2929582306203740e-03
      -1.6342133205345291e-02 3.6743742452594569e-02
      -1.6173164575537021e-02 -8.0248869946004039e-03
      -4.0620118197163671e-02 3.6607695153037308e-02
      -5.7000041209727906e-03 3.5986445966686174e-02
      -3.1044064000412337e-02 2.7573597462055656e-02
      3.5317906318342522e-02 2.8437486464726665e-02
      6.5163620079606412e-03 1.0779920846077779e-02
      4.7404687436938204e-03 -1.8047373133127990e-02
      1.1299810510110330e-03 -2.0703442465360239e-02
      -5.8266836554526245e-03 2.3950314419437260e-02
      3.7355405139311823e-04 3.1969704839656991e-02
      -5.7676222046073146e-03 -1.0067443225705139e-03
      1.6880185387280033e-02 1.1477742758302092e-02
      -1.0139585995150400e-03 -2.2125037617897199e-02
      -2.0444572858032378e-03 -1.0110463621393478e-02
      1.8300850064296305e-02 3.5180938402105694e-04
      -4.0658926533374178e-03 6.3661344453621255e-03
      3.4078356261863950e-03 3.2705898565202188e-02
      -6.8046619280865183e-03 1.5427717141955745e-02
      2.5765478166472002e-03 -2.1835075814293288e-02
      1.0906071137517528e-02 -3.1841900859174377e-02
      1.9618434944261970e-03 1.5564011175947632e-02
      -9.4074320181566067e-03 5.7261663637632612e-03
      3.5814967375490038e-02 -1.1204845799835349e-02
      9.2972858814245919e-03 -5.5591789665364599e-03
      1.1599888870052732e-02 -2.0438857007314695e-02
      -6.5696210066645503e-03 -8.3289030010357482e-03
      -1.9806019038121583e-02 -1.7144701650656062e-02
      -2.7443138552302428e-02 2.2067267110038372e-02
      -6.9034513472468672e-03 -9.7980373076409135e-03
      -2.1885205725176902e-02 1.9405392092300359e-02
      -2.7757394719206429e-03 -2.6683839933976418e-03
      3.5798320446963718e-02 -5.0957406522548271e-03
      -2.1336301617825990e-02 1.4862164516718948e-02
      -3.7878295219281474e-02 3.7053618104703166e-02
      -2.3921194612287734e-02 -5.8608684666718669e-03
      1.4091874214578651e-02 -1.7657734786345231e-03
      -3.1616873769590575e-02 2.4759675039931796e-02
      4.5325649740536322e-02 1.7794313525353166e-02
      2.5485084690861200e-02 1.3657272792776695e-02
      -1.1353062293238190e-02 1.1795751962661699e-02
      -1.5415683482078181e-02 -1.0009888563379829e-02
      4.3296960178055930e-03 2.4694196472505391e-02
      -1.1966641372911457e-02 1.7541519299035389e-02
      7.6305771296728241e-03 -2.6373500103655457e-02
      6.9435083146189595e-03 -3.2975875239703398e-02
      1.5046996470271358e-02 -1.6647733285044139e-02
      3.6537431722054294e-02 1.3912483131646747e-02
      2.1462894229038205e-02 -1.4527811398444767e-03
      2.3998578660861341e-02 -6.6745000816180984e-05
      -3.1024268418801886e-02 2.3284628200808816e-02
      -9.2627495216267650e-03 -4.2533951881991952e-02
      -1.5672629759438700e-03 3.1407710181603932e-02
      -1.8268958428525030e-02 8.7782484596634616e-04
      2.4090203176934995e-02 4.5706623470109869e-02
      -4.2862957243444497e-03 4.0835091491872155e-03
      -1.8309044339776377e-02 4.0662629028096510e-03
      -1.2019761676089936e-02 -7.0558778055370506e-03
      2.2527290477214804e-02 -6.6212162258023578e-03
      -5.0865722206019440e-03 -1.1856223778589676e-02
      -6.2087994087220863e-02 2.4059901620094658e-02
      -1.6528984092012616e-02 4.7126834142371857e-02
      3.1804738989934057e-02 -6.7513412824359187e-02
      5.4763058377473070e-02 -2.0506099960311299e-02
      -1.0618522752027097e-02 5.0696052898132629e-02
      -2.8740331269055522e-02 -3.9098560482705075e-02
      -6.8102342681506972e-02 -8.4676145510891657e-03
      -1.6401200853007357e-02 5.7606641424643772e-02
      -6.2014752827868336e-02 -2.5517471743030023e-02
      1.2808697048387115e-02 4.9145714410155179e-03
      -4.6882445350328593e-04 3.7605590756350275e-02
      -7.5466545272249788e-03 2.4270055013863024e-02
      -2.0231003985268760e-02 1.1327823453760098e-02
      -1.3095235353791554e-02 2.9078781363364399e-02
      8.2437994318025603e-03 4.5984820920312190e-02
      1.0854625856763941e-02 -6.5423545022280710e-03
      3.7393889963874376e-02 3.0256709908318566e-02
      2.0610464855452849e-02 -6.5444120926295882e-02
      2.0311724280157435e-02 -8.3598078897261247e-03
      -2.9366860920374337e-02 1.3763348512147675e-02
      1.6652987327778833e-02 2.9735741008593858e-02
      2.8102964865205381e-02 -1.5825636267458566e-02
      1.4833660991264199e-02 6.0329445145878229e-02
      9.4602456333447958e-03 -3.3917124044738609e-02
      -4.4184538234977810e-02 -4.6351175200755247e-02
      -2.7578091020647286e-03 2.3977411197705446e-02
      5.6130328108671317e-03 -3.6827496631131391e-02
      6.2388391217915139e-02 -2.6672818378987596e-02
      7.2054876316121480e-02 2.3904865766076873e-02
      1.8020701817665706e-02 3.3855081408383426e-02
      -3.0399303553859995e-02 1.4279093158626476e-02
      -3.5904033114929437e-03 -7.7637856218238072e-02
      1.3171859939502172e-02 -1.6395129158087950e-02
      2.6941470391354621e-02 -3.1243695307987776e-02
      -2.1372941936159146e-03 4.5264965389971011e-02
      3.4552712753492900e-04 -4.8897572160418543e-03
      2.2460371306272688e-02 -1.2874341152189347e-02
      -5.6120477723233787e-02 1.1423671685803553e-02
      -6.6182552807872219e-02 2.2229323634887430e-02
      -1.7391754414888438e-02 1.1667767782591321e-02
      -1.2918330733958963e-02 1.5049437149918250e-02
      -2.7091046476572369e-02 -7.1254258147580799e-03
      3.7963733441486201e-02 9.1414556645028101e-03
      8.6305754628987180e-02 5.8723642583960671e-02
      -6.0222818178429782e-03 4.6656530098032535e-02
      3.3715840404461447e-02 -1.2764810351841018e-02
      5.9999691364012915e-04 5.6013400444852139e-02
      -1.9755471953917570e-02 -1.0053842468413473e-02
      -1.2714113220536812e-02 -7.3101794982971119e-02
      7.4584962478627895e-03 -4.0759098534313976e-02
      1.4896809256430780e-02 -1.7616500332054957e-02
      1.8034540208960521e-02 5.8815703449341200e-02
      5.0641451320359257e-02 5.4931800258715699e-03
      9.4514025376292426e-03 1.8204490407567518e-02
      -3.6282139991854249e-02 1.0946696030359164e-02
      2.3933373635154588e-03 2.0110463042268101e-02
      1.5533280096859087e-02 7.1472339155399869e-02
      -3.6212084480523946e-02 4.1148579591265853e-02
      9.1816640712631525e-03 3.1869630251094350e-02
      1.5117136409333213e-02 -2.0913123621381660e-02
      7.8530015477214776e-03 -6.0505366376384054e-02
      -1.8234772145116320e-03 2.0883649413405762e-02
      -3.6558609540301170e-03 3.7172801481088882e-02
      5.0704430025117243e-03 -6.3422715766189700e-02
      -1.8414079586138197e-02 -5.2227877608331278e-03
      2.7099693012280343e-03 -1.1615268700602000e-02
      1.3307127139199208e-02 -5.2229821491139035e-02
      4.6147126561799465e-02 -4.0963009043190710e-02
      -5.7361706330454725e-02 4.3681821067538623e-02
      1.4854369257597567e-02 -2.1136628859926149e-03
      -1.0074316008354932e-01 3.1486441158467729e-02
      3.5600501863823175e-03 3.7691926841921866e-02
      5.8404470006961700e-04 2.2111115948088098e-02
      1.3881918729993524e-02 3.1798273206222159e-02
      -3.1916453948467649e-02 -1.6543827539181925e-02
      3.2119891897399756e-02 -1.9616259902214488e-02
      4.1348319819233183e-02 -3.7982010354294576e-02
      1.3210285580959902e-02 1.3227477521344018e-02
      1.3151342984483241e-02 1.9107103517904317e-02
      -1.0163977891684150e-02 -3.9986939872847594e-03
      -2.1658704318296292e-03 -5.1229634172503032e-03
      -7.6186691375772862e-03 -1.1365507238603630e-02
      2.7471594709580941e-02 -5.8575950333181488e-03
      4.1794292360397244e-02 2.3012282056797700e-02
      1.4321030867801175e-03 4.5423423059132190e-02
      -3.3725560233601952e-02 7.4969414320537733e-02
      1.5171740240689766e-02 1.5882272723912388e-02
      -1.1935224164977694e-02 -3.5959243553610666e-02
      4.4125743546846903e-02 -1.0524724061464645e-02
      1.3437116673218542e-02 3.0807627337851442e-02
      1.5870896169527773e-02 3.9774344094659998e-02
      4.8485614396666231e-02 4.9132491846948824e-02
      -9.5292435244370439e-03 -1.0449506886318165e-02
      -1.4978917505266186e-02 -2.5374248145757693e-02
      -5.4666912287641102e-03 -2.7151228469269848e-02
      -1.9514181649052661e-02 -2.0015398637225797e-02
      -8.8596900309483220e-03 2.5562901190111384e-02
      2.8170695954492900e-02 -2.2149738558107215e-02
      4.4772173330153041e-03 3.4616290712602499e-02
      1.2748727140484864e-03 -1.3539200568736883e-03
      3.0796065637256575e-02 1.7673065350998957e-02
      -4.1977563432214655e-02 3.9698132165091470e-04
      -3.5709875336976955e-02 1.2023559650052876e-02
      2.8821238489244970e-02 2.3615088319792376e-02
      6.5939201846587706e-02 -8.8734995579498026e-03
      -2.8915242859334778e-02 3.3534096143121681e-02
      -4.3331565212074152e-03 -8.2276139148231425e-03
      7.3070539543042504e-02 4.3489621529176112e-02
      -3.5515961280703438e-02 4.2883040914108099e-02
      -5.0789577354315385e-02 4.8053171069108426e-02
      -3.4652531519226023e-03 1.3033106202868721e-02
      -1.9325301454477833e-02 -1.4553908786450584e-02
      -1.8723723627827157e-03 -5.4777278989253993e-03
      -5.1472485628956998e-03 -7.3449480662789127e-02
      -6.5878186256272354e-03 2.6646240074099528e-03
      1.4929305073719010e-02 4.0908547117520976e-02
      -1.1736776087840083e-02 4.4067547499470937e-03
      2.7771104255254427e-02 1.7255162096512195e-02
      9.2244702081651139e-03 3.7602043831009825e-02
      -2.5835356242360507e-02 -7.6791753868363205e-02
      -1.3377548775091978e-02 3.4776365992780972e-02
      -6.8635826499019231e-03 8.8206185283896399e-03
      3.4169803631430948e-02 1.5663505387015487e-02
      3.1061998841815687e-02 -2.8255946008924695e-02
